{"learner":{"attributes":{"scikit_learn":"{\"_estimator_type\": \"classifier\"}"},"feature_names":[],"feature_types":[],"gradient_booster":{"model":{"cats":{"enc":[],"feature_segments":[],"sorted_idx":[]},"gbtree_model_param":{"num_parallel_tree":"1","num_trees":"300"},"iteration_indptr":[0,1,2,3,4,5,6,7,8,9,10,11,12,13,14,15,16,17,18,19,20,21,22,23,24,25,26,27,28,29,30,31,32,33,34,35,36,37,38,39,40,41,42,43,44,45,46,47,48,49,50,51,52,53,54,55,56,57,58,59,60,61,62,63,64,65,66,67,68,69,70,71,72,73,74,75,76,77,78,79,80,81,82,83,84,85,86,87,88,89,90,91,92,93,94,95,96,97,98,99,100,101,102,103,104,105,106,107,108,109,110,111,112,113,114,115,116,117,118,119,120,121,122,123,124,125,126,127,128,129,130,131,132,133,134,135,136,137,138,139,140,141,142,143,144,145,146,147,148,149,150,151,152,153,154,155,156,157,158,159,160,161,162,163,164,165,166,167,168,169,170,171,172,173,174,175,176,177,178,179,180,181,182,183,184,185,186,187,188,189,190,191,192,193,194,195,196,197,198,199,200,201,202,203,204,205,206,207,208,209,210,211,212,213,214,215,216,217,218,219,220,221,222,223,224,225,226,227,228,229,230,231,232,233,234,235,236,237,238,239,240,241,242,243,244,245,246,247,248,249,250,251,252,253,254,255,256,257,258,259,260,261,262,263,264,265,266,267,268,269,270,271,272,273,274,275,276,277,278,279,280,281,282,283,284,285,286,287,288,289,290,291,292,293,294,295,296,297,298,299,300],"tree_info":[0,0,0,0,0,0,0,0,0,0,0,0,0,0,0,0,0,0,0,0,0,0,0,0,0,0,0,0,0,0,0,0,0,0,0,0,0,0,0,0,0,0,0,0,0,0,0,0,0,0,0,0,0,0,0,0,0,0,0,0,0,0,0,0,0,0,0,0,0,0,0,0,0,0,0,0,0,0,0,0,0,0,0,0,0,0,0,0,0,0,0,0,0,0,0,0,0,0,0,0,0,0,0,0,0,0,0,0,0,0,0,0,0,0,0,0,0,0,0,0,0,0,0,0,0,0,0,0,0,0,0,0,0,0,0,0,0,0,0,0,0,0,0,0,0,0,0,0,0,0,0,0,0,0,0,0,0,0,0,0,0,0,0,0,0,0,0,0,0,0,0,0,0,0,0,0,0,0,0,0,0,0,0,0,0,0,0,0,0,0,0,0,0,0,0,0,0,0,0,0,0,0,0,0,0,0,0,0,0,0,0,0,0,0,0,0,0,0,0,0,0,0,0,0,0,0,0,0,0,0,0,0,0,0,0,0,0,0,0,0,0,0,0,0,0,0,0,0,0,0,0,0,0,0,0,0,0,0,0,0,0,0,0,0,0,0,0,0,0,0,0,0,0,0,0,0,0,0,0,0,0,0,0,0,0,0,0,0,0,0,0,0,0,0,0,0,0,0,0,0],"trees":[{"base_weights":[2.7835809E-2,6.314642E-2,-2.4596225E-1,6.6421755E-2,-7.957559E-1,-2.4248664E-1,4.1004587E-2,-6.0066264E-2,2.7362425E-3,1.45297E-3,-3.889538E-2],"categories":[],"categories_nodes":[],"categories_segments":[],"categories_sizes":[],"default_left":[0,0,0,0,0,0,0,0,0,0,0],"id":0,"left_children":[1,-1,3,5,7,9,-1,-1,-1,-1,-1],"loss_changes":[1.9555151E1,0E0,8.360767E0,7.8018866E0,6.699548E0,3.7273474E0,0E0,0E0,0E0,0E0,0E0],"parents":[2147483647,0,0,2,2,3,3,4,4,5,5],"right_children":[2,-1,4,6,8,10,-1,-1,-1,-1,-1],"split_conditions":[1.5226962E1,6.314642E-2,2.6826317E1,3.866128E-2,5.0150387E-2,9.138895E-3,4.1004587E-2,-6.0066264E-2,2.7362425E-3,1.45297E-3,-3.889538E-2],"split_indices":[8,0,8,7,7,0,0,0,0,0,0],"split_type":[0,0,0,0,0,0,0,0,0,0,0],"sum_hessian":[5.248628E1,8.544278E0,4.3942E1,2.85623E1,1.53797E1,2.075039E1,7.811911E0,1.0253134E1,5.126567E0,1.4403211E1,6.347178E0],"tree_param":{"num_deleted":"0","num_feature":"9","num_nodes":"11","size_leaf_vector":"1"}},{"base_weights":[-6.758252E-2,4.33075E-1,-8.7415814E-1,5.734194E-1,-0E0,-2.4005868E-1,-6.9404125E-2,6.103879E-2,2.1969931E-1,-4.5266595E-2,2.0024726E-2,2.6580064E-2,-0E0],"categories":[],"categories_nodes":[],"categories_segments":[],"categories_sizes":[],"default_left":[0,0,0,0,0,0,0,0,0,0,0,0,0],"id":1,"left_children":[1,3,5,7,-1,9,-1,-1,11,-1,-1,-1,-1],"loss_changes":[2.2682062E1,2.1794E0,5.5682507E0,4.71731E0,0E0,6.3199716E0,0E0,0E0,1.3991656E0,0E0,0E0,0E0,0E0],"parents":[2147483647,0,0,1,1,2,2,3,3,5,5,8,8],"right_children":[2,4,6,8,-1,10,-1,-1,12,-1,-1,-1,-1],"split_conditions":[2.5497856E1,3.8688418E-2,5.5706997E1,1.5114352E1,-0E0,3.3984053E-1,-6.9404125E-2,6.103879E-2,-3.341291E-2,-4.5266595E-2,2.0024726E-2,2.6580064E-2,-0E0],"split_indices":[8,1,3,8,0,5,0,0,2,0,0,0,0],"split_type":[0,0,0,0,0,0,0,0,0,0,0,0,0],"sum_hessian":[5.1747883E1,3.2117897E1,1.9629984E1,2.4089085E1,8.028813E0,1.0536622E1,9.093361E0,6.279923E0,1.7809162E1,5.1459446E0,5.390678E0,6.3344345E0,1.1474727E1],"tree_param":{"num_deleted":"0","num_feature":"9","num_nodes":"13","size_leaf_vector":"1"}},{"base_weights":[1.234186E-1,4.1330108E-1,-3.1992537E-1,-1.9274725E-1,7.957374E-1,1.5208053E-2,-6.007953E-1,2.1968752E-2,-3.7001368E-2,5.2628744E-2,1.5238695E-2,1.0240662E-2,-6.5748505E-2],"categories":[],"categories_nodes":[],"categories_segments":[],"categories_sizes":[],"default_left":[0,0,0,0,0,0,0,0,0,0,0,0,0],"id":2,"left_children":[1,3,5,7,9,-1,11,-1,-1,-1,-1,-1,-1],"loss_changes":[6.769745E0,8.011351E0,4.074522E0,5.45773E0,1.2620964E0,0E0,9.858353E0,0E0,0E0,0E0,0E0,0E0,0E0],"parents":[2147483647,0,0,1,1,2,2,3,3,4,4,6,6],"right_children":[2,4,6,8,10,-1,12,-1,-1,-1,-1,-1,-1],"split_conditions":[5.905447E-1,3.3984053E-1,5.1769838E-2,2.1352835E1,-1.1937029E-2,1.5208053E-2,2.3175636E1,2.1968752E-2,-3.7001368E-2,5.2628744E-2,1.5238695E-2,1.0240662E-2,-6.5748505E-2],"split_indices":[5,5,2,8,2,0,8,0,0,0,0,0,0],"split_type":[0,0,0,0,0,0,0,0,0,0,0,0,0],"sum_hessian":[4.825462E1,2.9940928E1,1.831369E1,1.14618635E1,1.8479065E1,5.0800047E0,1.32336855E1,5.0777073E0,6.384156E0,9.961638E0,8.5174265E0,6.560071E0,6.673614E0],"tree_param":{"num_deleted":"0","num_feature":"9","num_nodes":"13","size_leaf_vector":"1"}},{"base_weights":[-0E0,2.3339327E-1,-5.4730624E-1,-3.882627E-2,4.8499244E-1,6.526983E-3,-5.437103E-2,1.8980153E-2,4.881451E-2,2.3421688E-2,-2.1397855E-2],"categories":[],"categories_nodes":[],"categories_segments":[],"categories_sizes":[],"default_left":[0,0,0,0,0,0,0,0,0,0,0],"id":3,"left_children":[1,3,5,-1,7,-1,-1,9,-1,-1,-1],"loss_changes":[7.1448464E0,1.0544862E1,6.891234E0,0E0,7.006154E0,0E0,0E0,4.3312993E0,0E0,0E0,0E0],"parents":[2147483647,0,0,1,1,2,2,4,4,7,7],"right_children":[2,4,6,-1,8,-1,-1,10,-1,-1,-1],"split_conditions":[5.649115E1,-1.747136E-1,2.3434267E1,-3.882627E-2,3.866128E-2,6.526983E-3,-5.437103E-2,3.2488417E-2,4.881451E-2,2.3421688E-2,-2.1397855E-2],"split_indices":[3,2,8,0,7,0,0,7,0,0,0],"split_type":[0,0,0,0,0,0,0,0,0,0,0],"sum_hessian":[5.1849457E1,3.7109085E1,1.4740372E1,6.1725354E0,3.0936548E1,6.798773E0,7.9415984E0,1.74652E1,1.3471348E1,9.217916E0,8.247285E0],"tree_param":{"num_deleted":"0","num_feature":"9","num_nodes":"11","size_leaf_vector":"1"}},{"base_weights":[-2.352465E-2,2.9648528E-1,-5.390617E-2,-1.0481984E-1,6.052152E-2,5.8653284E-2,-5.0783086E-1,-2.9176527E-3,-5.0937276E-2],"categories":[],"categories_nodes":[],"categories_segments":[],"categories_sizes":[],"default_left":[0,0,0,0,0,0,0,0,0],"id":4,"left_children":[1,3,-1,5,-1,-1,7,-1,-1],"loss_changes":[2.03348E1,1.7344366E1,0E0,1.774725E1,0E0,0E0,5.456561E0,0E0,0E0],"parents":[2147483647,0,0,1,1,3,3,6,6],"right_children":[2,4,-1,6,-1,-1,8,-1,-1],"split_conditions":[2.8450066E1,1.0561513E0,-5.390617E-2,1.5086154E1,6.052152E-2,5.8653284E-2,-1.3721535E-1,-2.9176527E-3,-5.0937276E-2],"split_indices":[8,6,0,8,0,0,4,0,0],"split_type":[0,0,0,0,0,0,0,0,0],"sum_hessian":[5.520211E1,4.30903E1,1.2111808E1,3.079294E1,1.2297363E1,6.1691995E0,2.4623741E1,1.4805578E1,9.818163E0],"tree_param":{"num_deleted":"0","num_feature":"9","num_nodes":"9","size_leaf_vector":"1"}},{"base_weights":[-1.7707098E-1,-4.468555E-1,3.9749685E-1,3.987734E-2,-6.9909203E-1,4.894117E-2,-3.364048E-2,-3.753059E-1,-7.251401E-2,-7.5805797E-3,-4.36458E-2],"categories":[],"categories_nodes":[],"categories_segments":[],"categories_sizes":[],"default_left":[0,0,0,0,0,0,0,0,0,0,0],"id":5,"left_children":[1,3,5,-1,7,-1,-1,9,-1,-1,-1],"loss_changes":[8.869874E0,1.3245876E1,1.2648758E1,0E0,6.1865444E0,0E0,0E0,2.1937299E0,0E0,0E0,0E0],"parents":[2147483647,0,0,1,1,2,2,4,4,7,7],"right_children":[2,4,6,-1,8,-1,-1,10,-1,-1,-1],"split_conditions":[1.1913197E0,1.51217985E1,4.011513E1,3.987734E-2,2.7547312E1,4.894117E-2,-3.364048E-2,1.8508906E-2,-7.251401E-2,-7.5805797E-3,-4.36458E-2],"split_indices":[6,8,8,0,8,0,0,0,0,0,0],"split_type":[0,0,0,0,0,0,0,0,0,0,0],"sum_hessian":[5.27705E1,3.6804134E1,1.5966366E1,5.1400023E0,3.1664131E1,1.0760181E1,5.2061844E0,2.4687761E1,6.9763703E0,1.9524797E1,5.162964E0],"tree_param":{"num_deleted":"0","num_feature":"9","num_nodes":"11","size_leaf_vector":"1"}},{"base_weights":[8.983182E-2,3.8155422E-1,-2.0078476E-1,-2.0567855E-2,7.458099E-1,1.6728075E-2,-3.862608E-1,-0E0,5.0187808E-2,2.3200915E-3,-5.8255255E-1,-4.6998028E-2,-3.9087E-3],"categories":[],"categories_nodes":[],"categories_segments":[],"categories_sizes":[],"default_left":[0,0,0,0,0,0,0,0,0,0,0,0,0],"id":6,"left_children":[1,3,5,-1,7,-1,9,-1,-1,-1,11,-1,-1],"loss_changes":[4.6945024E0,8.795125E0,2.9405713E0,0E0,3.9852371E0,0E0,2.147242E0,0E0,0E0,0E0,2.1788182E0,0E0,0E0],"parents":[2147483647,0,0,1,1,2,2,4,4,6,6,10,10],"right_children":[2,4,6,-1,8,-1,10,-1,-1,-1,12,-1,-1],"split_conditions":[5.4E-1,-5.420426E-1,3.7201017E-2,-2.0567855E-2,3.3984053E-1,1.6728075E-2,5.7698E1,-0E0,5.0187808E-2,2.3200915E-3,3.0934066E-1,-4.6998028E-2,-3.9087E-3],"split_indices":[5,4,2,0,5,0,3,0,0,0,4,0,0],"split_type":[0,0,0,0,0,0,0,0,0,0,0,0,0],"sum_hessian":[5.049977E1,2.5748224E1,2.4751547E1,7.591587E0,1.8156637E1,5.261558E0,1.9489988E1,5.0731506E0,1.3083487E1,5.7643347E0,1.3725654E1,6.4421535E0,7.2834997E0],"tree_param":{"num_deleted":"0","num_feature":"9","num_nodes":"13","size_leaf_vector":"1"}},{"base_weights":[1.8804144E-2,-5.3823996E-2,1.9698861E-1,-5.4906017E-1,5.3902286E-1,-5.081425E-2,-7.090072E-4,8.3547467E-1,-4.5725897E-2,4.8250686E-2,1.3422906E-2,-2.5536329E-2,1.9174157E-2],"categories":[],"categories_nodes":[],"categories_segments":[],"categories_sizes":[],"default_left":[0,0,0,0,0,0,0,0,0,0,0,0,0],"id":7,"left_children":[1,-1,3,5,7,-1,-1,9,11,-1,-1,-1,-1],"loss_changes":[1.048768E1,0E0,1.292999E1,3.3886542E0,6.4751987E0,0E0,0E0,6.025505E-1,3.046023E0,0E0,0E0,0E0,0E0],"parents":[2147483647,0,0,2,2,3,3,4,4,7,7,8,8],"right_children":[2,-1,4,6,8,-1,-1,10,12,-1,-1,-1,-1],"split_conditions":[7.974334E-1,-5.3823996E-2,4.421846E1,4.473474E-2,5.649115E1,-5.081425E-2,-7.090072E-4,1.8805841E-2,5.0013393E-1,4.8250686E-2,1.3422906E-2,-2.5536329E-2,1.9174157E-2],"split_indices":[6,0,3,7,3,0,0,0,4,0,0,0,0],"split_type":[0,0,0,0,0,0,0,0,0,0,0,0,0],"sum_hessian":[5.1818283E1,5.44703E0,4.637125E1,1.3736547E1,3.2634705E1,5.872235E0,7.8643126E0,2.1654152E1,1.0980552E1,1.5766534E1,5.8876185E0,5.6473517E0,5.3332E0],"tree_param":{"num_deleted":"0","num_feature":"9","num_nodes":"13","size_leaf_vector":"1"}},{"base_weights":[-5.4076824E-2,-2.169085E-1,4.872856E-2,-4.5084905E-2,-6.4129174E-2,-2.802634E-1,4.3440232E-1,8.094802E-3,-3.9488684E-2,4.3533795E-2,-1.9821236E-3],"categories":[],"categories_nodes":[],"categories_segments":[],"categories_sizes":[],"default_left":[0,0,0,0,0,0,0,0,0,0,0],"id":8,"left_children":[1,3,-1,-1,5,7,9,-1,-1,-1,-1],"loss_changes":[8.901147E0,4.3927984E0,0E0,0E0,4.6656566E0,7.563266E0,3.1137505E0,0E0,0E0,0E0,0E0],"parents":[2147483647,0,0,1,1,4,4,5,5,6,6],"right_children":[2,4,-1,-1,6,8,10,-1,-1,-1,-1],"split_conditions":[1.6027948E0,3.8256927E1,4.872856E-2,-4.5084905E-2,1.0561513E0,8.908261E-1,1.6146323E-1,8.094802E-3,-3.9488684E-2,4.3533795E-2,-1.9821236E-3],"split_indices":[6,3,0,0,6,6,4,0,0,0,0],"split_type":[0,0,0,0,0,0,0,0,0,0,0],"sum_hessian":[5.087987E1,4.5708675E1,5.1711965E0,5.952349E0,3.9756325E1,2.9043392E1,1.0712934E1,1.5754559E1,1.3288834E1,5.2565656E0,5.456368E0],"tree_param":{"num_deleted":"0","num_feature":"9","num_nodes":"11","size_leaf_vector":"1"}},{"base_weights":[1.95664E-2,-5.082174E-2,1.7820616E-1,5.47634E-1,-5.161756E-1,8.7363493E-1,1.6009888E-1,-4.32827E-2,5.009275E-4,4.904303E-3,5.7070524E-2,-1.7029688E-2,2.4194168E-2],"categories":[],"categories_nodes":[],"categories_segments":[],"categories_sizes":[],"default_left":[0,0,0,0,0,0,0,0,0,0,0,0,0],"id":9,"left_children":[1,-1,3,5,7,9,11,-1,-1,-1,-1,-1,-1],"loss_changes":[9.0381775E0,0E0,1.3435645E1,3.5176954E0,3.748147E0,2.76935E0,3.4412017E0,0E0,0E0,0E0,0E0,0E0,0E0],"parents":[2147483647,0,0,2,2,3,3,4,4,5,5,6,6],"right_children":[2,-1,4,6,8,10,12,-1,-1,-1,-1,-1,-1],"split_conditions":[-1.9383405E-1,-5.082174E-2,5.643971E1,-2.6099043E-2,7.452693E-1,2.7305183E-1,4.8472887E-1,-4.32827E-2,5.009275E-4,4.904303E-3,5.7070524E-2,-1.7029688E-2,2.4194168E-2],"split_indices":[2,0,3,2,5,5,5,0,0,0,0,0,0],"split_type":[0,0,0,0,0,0,0,0,0,0,0,0,0],"sum_hessian":[5.3339012E1,5.2284307E0,4.811058E1,3.214918E1,1.5961403E1,1.53975935E1,1.6751587E1,9.386931E0,6.574471E0,5.132461E0,1.0265132E1,5.931378E0,1.0820209E1],"tree_param":{"num_deleted":"0","num_feature":"9","num_nodes":"13","size_leaf_vector":"1"}},{"base_weights":[3.683379E-3,-3.088176E-2,1.0279635E-1,6.827518E-1,-1.4581151E-1,-3.318052E-3,5.3760964E-2,-6.0552585E-1,5.358924E-1,-7.865897E-3,-5.138498E-2,4.6054624E-2,-2.6248442E-3],"categories":[],"categories_nodes":[],"categories_segments":[],"categories_sizes":[],"default_left":[0,0,0,0,0,0,0,0,0,0,0,0,0],"id":10,"left_children":[1,-1,3,5,7,-1,-1,9,11,-1,-1,-1,-1],"loss_changes":[3.4024146E0,0E0,7.9485087E0,5.505088E0,1.239266E1,0E0,0E0,3.5670347E0,4.082751E0,0E0,0E0,0E0,0E0],"parents":[2147483647,0,0,2,2,3,3,4,4,7,7,8,8],"right_children":[2,-1,4,6,8,-1,-1,10,12,-1,-1,-1,-1],"split_conditions":[-1.747136E-1,-3.088176E-2,-2.6099043E-2,-5.279918E-1,1.0401928E0,-3.318052E-3,5.3760964E-2,8.9082015E-1,5.5706997E1,-7.865897E-3,-5.138498E-2,4.6054624E-2,-2.6248442E-3],"split_indices":[2,0,2,4,6,0,0,6,3,0,0,0,0],"split_type":[0,0,0,0,0,0,0,0,0,0,0,0,0],"sum_hessian":[5.536945E1,5.4839163E0,4.9885536E1,1.4523511E1,3.5362022E1,5.126419E0,9.397092E0,2.1691248E1,1.3670776E1,1.24272585E1,9.263989E0,8.092049E0,5.5787272E0],"tree_param":{"num_deleted":"0","num_feature":"9","num_nodes":"13","size_leaf_vector":"1"}},{"base_weights":[-1.302309E-1,-5.652369E-1,2.093001E-2,-4.517499E-3,-3.9650183E-2,4.8223215E-1,-4.1700092E-1,-0E0,4.738265E-2,-6.677318E-1,3.5480422E-3,-1.1673086E-2,1.2174073E-2,-7.7304393E-3,-4.296763E-2],"categories":[],"categories_nodes":[],"categories_segments":[],"categories_sizes":[],"default_left":[0,0,0,0,0,0,0,0,0,0,0,0,0,0,0],"id":11,"left_children":[1,3,5,-1,-1,7,9,11,-1,13,-1,-1,-1,-1,-1],"loss_changes":[3.7597806E0,9.844065E-1,8.549847E0,0E0,0E0,4.684146E0,2.9775414E0,8.1785893E-1,0E0,6.8472624E-1,0E0,0E0,0E0,0E0,0E0],"parents":[2147483647,0,0,1,1,2,2,5,5,6,6,7,7,9,9],"right_children":[2,4,6,-1,-1,8,10,12,-1,14,-1,-1,-1,-1,-1],"split_conditions":[4.421846E1,2.2468023E-1,5.5992393E1,-4.517499E-3,-3.9650183E-2,-1.4956398E-3,5.6188524E-1,9.1798383E-1,4.738265E-2,7.818874E-3,3.5480422E-3,-1.1673086E-2,1.2174073E-2,-7.7304393E-3,-4.296763E-2],"split_indices":[3,5,3,0,0,1,4,6,0,1,0,0,0,0,0],"split_type":[0,0,0,0,0,0,0,0,0,0,0,0,0,0,0],"sum_hessian":[5.067916E1,1.2509331E1,3.816983E1,5.671986E0,6.837345E0,1.9046392E1,1.9123436E1,1.0380528E1,8.665864E0,1.2822608E1,6.300829E0,5.253868E0,5.126661E0,5.1785307E0,7.644077E0],"tree_param":{"num_deleted":"0","num_feature":"9","num_nodes":"15","size_leaf_vector":"1"}},{"base_weights":[1.1306411E-2,-1.9073017E-1,4.6801385E-1,9.330814E-2,-5.8470434E-1,-8.3499765E-3,4.6719357E-2,-2.5812453E-2,4.621034E-1,-1.1173015E-3,-4.5058873E-2,-0E0,3.6091622E-2],"categories":[],"categories_nodes":[],"categories_segments":[],"categories_sizes":[],"default_left":[0,0,0,0,0,0,0,0,0,0,0,0,0],"id":12,"left_children":[1,3,5,7,9,-1,-1,-1,11,-1,-1,-1,-1],"loss_changes":[4.9681697E0,4.339491E0,5.6703978E0,5.3233404E0,2.3330288E0,0E0,0E0,0E0,2.0066075E0,0E0,0E0,0E0,0E0],"parents":[2147483647,0,0,1,1,2,2,3,3,4,4,8,8],"right_children":[2,4,6,8,10,-1,-1,-1,12,-1,-1,-1,-1],"split_conditions":[1.1856493E0,5.822303E-1,4.108009E-1,-5.420426E-1,8.8761824E-1,-8.3499765E-3,4.6719357E-2,-2.5812453E-2,-1.53811695E-2,-1.1173015E-3,-4.5058873E-2,-0E0,3.6091622E-2],"split_indices":[6,5,5,4,6,0,0,0,0,0,0,0,0],"split_type":[0,0,0,0,0,0,0,0,0,0,0,0,0],"sum_hessian":[4.8405525E1,3.3608074E1,1.479745E1,1.9678171E1,1.3929903E1,6.3555183E0,8.441932E0,6.6052966E0,1.3072874E1,6.3562565E0,7.573647E0,5.0443883E0,8.028485E0],"tree_param":{"num_deleted":"0","num_feature":"9","num_nodes":"13","size_leaf_vector":"1"}},{"base_weights":[4.2527758E-2,3.3362022E-1,-5.240999E-1,-2.8825963E-2,5.81117E-1,-5.2893213E-3,-3.491291E-2,-0E0,5.2079845E-2,2.9558836E-2,-2.0069776E-2],"categories":[],"categories_nodes":[],"categories_segments":[],"categories_sizes":[],"default_left":[0,0,0,0,0,0,0,0,0,0,0],"id":13,"left_children":[1,3,5,-1,7,-1,-1,9,-1,-1,-1],"loss_changes":[8.739006E0,8.733666E0,7.362871E-1,0E0,7.536481E0,0E0,0E0,4.2008395E0,0E0,0E0,0E0],"parents":[2147483647,0,0,1,1,2,2,4,4,7,7],"right_children":[2,4,6,-1,8,-1,-1,10,-1,-1,-1],"split_conditions":[5.649115E1,-1.747136E-1,8.5248685E-1,-2.8825963E-2,9.606847E-1,-5.2893213E-3,-3.491291E-2,3.137082E-2,5.2079845E-2,2.9558836E-2,-2.0069776E-2],"split_indices":[3,2,6,0,6,0,0,7,0,0,0],"split_type":[0,0,0,0,0,0,0,0,0,0,0],"sum_hessian":[4.9439873E1,3.3787262E1,1.5652612E1,6.2231927E0,2.7564068E1,6.3900476E0,9.262565E0,1.341531E1,1.4148759E1,5.4051166E0,8.010193E0],"tree_param":{"num_deleted":"0","num_feature":"9","num_nodes":"11","size_leaf_vector":"1"}},{"base_weights":[6.7293565E-3,-2.896828E-2,1.7124583E-1,3.9775085E-2,3.6280774E-2,4.5984066E-1,-2.0626874E-1,-0E0,3.404617E-2,6.7223087E-3,-3.6380045E-2],"categories":[],"categories_nodes":[],"categories_segments":[],"categories_sizes":[],"default_left":[0,0,0,0,0,0,0,0,0,0,0],"id":14,"left_children":[1,-1,3,5,-1,7,9,-1,-1,-1,-1],"loss_changes":[4.96081E0,0E0,2.6518695E0,4.1550517E0,0E0,1.3064258E0,4.7643576E0,0E0,0E0,0E0,0E0],"parents":[2147483647,0,0,2,2,3,3,5,5,6,6],"right_children":[2,-1,4,6,-1,8,10,-1,-1,-1,-1],"split_conditions":[-5.420426E-1,-2.896828E-2,5.0079007E-2,8.908261E-1,3.6280774E-2,8.238746E-1,1.6146323E-1,-0E0,3.404617E-2,6.7223087E-3,-3.6380045E-2],"split_indices":[4,0,7,6,0,6,4,0,0,0,0],"split_type":[0,0,0,0,0,0,0,0,0,0,0],"sum_hessian":[4.9507214E1,9.079337E0,4.042788E1,3.5139774E1,5.2881017E0,1.3088438E1,2.2051338E1,5.3896065E0,7.6988316E0,1.3653364E1,8.397973E0],"tree_param":{"num_deleted":"0","num_feature":"9","num_nodes":"11","size_leaf_vector":"1"}},{"base_weights":[6.0644895E-2,4.7989443E-1,-5.6302303E-1,1.0236975E-1,8.237643E-1,-4.9072918E-2,-0E0,3.601945E-2,-1.7997565E-2,5.571362E-2,1.5263206E-2],"categories":[],"categories_nodes":[],"categories_segments":[],"categories_sizes":[],"default_left":[0,0,0,0,0,0,0,0,0,0,0],"id":15,"left_children":[1,3,5,7,9,-1,-1,-1,-1,-1,-1],"loss_changes":[1.3215713E1,3.346387E0,4.798882E0,5.722938E0,8.7833977E-1,0E0,0E0,0E0,0E0,0E0,0E0],"parents":[2147483647,0,0,1,1,2,2,3,3,4,4],"right_children":[2,4,6,8,10,-1,-1,-1,-1,-1,-1],"split_conditions":[2.4937859E1,9.64546E-1,1.1703671E0,-3.6028393E-2,6.1580485E-1,-4.9072918E-2,-0E0,3.601945E-2,-1.7997565E-2,5.571362E-2,1.5263206E-2],"split_indices":[8,6,6,2,5,0,0,0,0,0,0],"split_type":[0,0,0,0,0,0,0,0,0,0,0],"sum_hessian":[4.663568E1,2.8643423E1,1.799226E1,1.558383E1,1.3059593E1,9.561075E0,8.431184E0,6.6540117E0,8.929818E0,6.2791176E0,6.780476E0],"tree_param":{"num_deleted":"0","num_feature":"9","num_nodes":"11","size_leaf_vector":"1"}},{"base_weights":[-1.598323E-1,4.1090716E-2,-3.4246323E-1,-4.5711553E-1,1.5680132E-2,-1.7107114E-1,-6.1992478E-2,4.655609E-3,-5.0876237E-2],"categories":[],"categories_nodes":[],"categories_segments":[],"categories_sizes":[],"default_left":[0,0,0,0,0,0,0,0,0],"id":16,"left_children":[1,-1,3,5,-1,7,-1,-1,-1],"loss_changes":[9.263608E0,0E0,3.6596427E0,7.5622644E0,0E0,7.6328845E0,0E0,0E0,0E0],"parents":[2147483647,0,0,2,2,3,3,5,5],"right_children":[2,-1,4,6,-1,8,-1,-1,-1],"split_conditions":[1.5114352E1,4.1090716E-2,5.160847E-2,2.8994904E1,1.5680132E-2,2.076197E-2,-6.1992478E-2,4.655609E-3,-5.0876237E-2],"split_indices":[8,0,7,8,0,0,0,0,0],"split_type":[0,0,0,0,0,0,0,0,0],"sum_hessian":[4.786865E1,5.98133E0,4.1887318E1,3.6821163E1,5.066154E0,2.9219143E1,7.602021E0,2.317529E1,6.0438538E0],"tree_param":{"num_deleted":"0","num_feature":"9","num_nodes":"9","size_leaf_vector":"1"}},{"base_weights":[-1.0767783E-1,-4.741167E-1,7.976987E-2,3.992136E-3,-4.419772E-2,-2.184918E-2,3.475489E-1,3.2009967E-2,9.796566E-2,2.3451446E-2,-1.2959668E-2],"categories":[],"categories_nodes":[],"categories_segments":[],"categories_sizes":[],"default_left":[0,0,0,0,0,0,0,0,0,0,0],"id":17,"left_children":[1,3,5,-1,-1,-1,7,-1,9,-1,-1],"loss_changes":[3.6053467E0,4.541259E0,4.8125477E0,0E0,0E0,0E0,1.216558E0,0E0,2.4588325E0,0E0,0E0],"parents":[2147483647,0,0,1,1,2,2,6,6,8,8],"right_children":[2,4,6,-1,-1,-1,8,-1,10,-1,-1],"split_conditions":[3.324186E-2,5.3316957E-1,3.3984053E-1,3.992136E-3,-4.419772E-2,-2.184918E-2,5.2266075E1,3.2009967E-2,3.669684E-3,2.3451446E-2,-1.2959668E-2],"split_indices":[7,5,5,0,0,0,3,0,0,0,0],"split_type":[0,0,0,0,0,0,0,0,0,0,0],"sum_hessian":[4.6516865E1,1.560995E1,3.0906916E1,6.8038554E0,8.806094E0,9.480569E0,2.1426346E1,7.499396E0,1.392695E1,7.209882E0,6.717069E0],"tree_param":{"num_deleted":"0","num_feature":"9","num_nodes":"11","size_leaf_vector":"1"}},{"base_weights":[-1.4822385E-2,-3.1788334E-1,4.3986404E-1,2.5578106E-2,-6.4590085E-1,-1.2251187E-2,7.3964643E-1,-4.1491266E-2,-0E0,5.2367684E-2,1.4105387E-3],"categories":[],"categories_nodes":[],"categories_segments":[],"categories_sizes":[],"default_left":[0,0,0,0,0,0,0,0,0,0,0],"id":18,"left_children":[1,3,5,-1,7,-1,9,-1,-1,-1,-1],"loss_changes":[7.1669774E0,9.455492E0,4.7872124E0,0E0,2.8889513E0,0E0,2.7212696E0,0E0,0E0,0E0,0E0],"parents":[2147483647,0,0,1,1,2,2,4,4,6,6],"right_children":[2,4,6,-1,8,-1,10,-1,-1,-1,-1],"split_conditions":[1.0620161E0,-2.969327E-2,-1.4994767E-1,2.5578106E-2,6.4232185E1,-1.2251187E-2,1.3247769E-1,-4.1491266E-2,-0E0,5.2367684E-2,1.4105387E-3],"split_indices":[6,2,2,0,3,0,2,0,0,0,0],"split_type":[0,0,0,0,0,0,0,0,0,0,0],"sum_hessian":[4.842404E1,3.0077782E1,1.834626E1,7.774719E0,2.2303062E1,5.188948E0,1.3157311E1,1.6919123E1,5.383941E0,8.034933E0,5.1223783E0],"tree_param":{"num_deleted":"0","num_feature":"9","num_nodes":"11","size_leaf_vector":"1"}},{"base_weights":[4.2929724E-2,-8.034746E-2,3.914883E-2,-3.0850768E-1,3.706559E-1,-1.069866E-1,-4.1076813E-2,-0E0,3.3822484E-2,1.0054377E-2,-5.358229E-2],"categories":[],"categories_nodes":[],"categories_segments":[],"categories_sizes":[],"default_left":[0,0,0,0,0,0,0,0,0,0,0],"id":19,"left_children":[1,3,-1,5,7,9,-1,-1,-1,-1,-1],"loss_changes":[5.245725E0,4.935233E0,0E0,2.7097821E0,1.9864409E0,8.671105E0,0E0,0E0,0E0,0E0,0E0],"parents":[2147483647,0,0,1,1,3,3,4,4,5,5],"right_children":[2,4,-1,6,8,10,-1,-1,-1,-1,-1],"split_conditions":[6.6521287E-1,1.0561513E0,3.914883E-2,1.4144085E-1,-4.1202954E-3,5.2737582E-2,-4.1076813E-2,-0E0,3.3822484E-2,1.0054377E-2,-5.358229E-2],"split_indices":[4,6,0,4,0,2,0,0,0,0,0],"split_type":[0,0,0,0,0,0,0,0,0,0,0],"sum_hessian":[5.0269466E1,4.404043E1,6.2290397E0,3.0401176E1,1.3639251E1,2.4262417E1,6.138759E0,6.602549E0,7.0367017E0,1.9196564E1,5.065853E0],"tree_param":{"num_deleted":"0","num_feature":"9","num_nodes":"11","size_leaf_vector":"1"}},{"base_weights":[-0E0,-2.4903682E-1,3.981084E-1,-4.857624E-1,3.4327578E-2,-3.3856474E-3,3.2080542E-2,-1.0986137E-2,-3.3059932E-2,2.1221869E-2,-1.5169102E-2],"categories":[],"categories_nodes":[],"categories_segments":[],"categories_sizes":[],"default_left":[0,0,0,0,0,0,0,0,0,0,0],"id":20,"left_children":[1,3,5,7,9,-1,-1,-1,-1,-1,-1],"loss_changes":[5.2670517E0,2.4292016E0,2.7074099E0,1.4268494E-1,2.3774643E0,0E0,0E0,0E0,0E0,0E0,0E0],"parents":[2147483647,0,0,1,1,2,2,3,3,4,4],"right_children":[2,4,6,8,10,-1,-1,-1,-1,-1,-1],"split_conditions":[1.0573583E0,2.021891E-3,-1.6620051E-2,8.6685866E-1,8.9082015E-1,-3.3856474E-3,3.2080542E-2,-1.0986137E-2,-3.3059932E-2,2.1221869E-2,-1.5169102E-2],"split_indices":[6,1,0,6,6,0,0,0,0,0,0],"split_type":[0,0,0,0,0,0,0,0,0,0,0],"sum_hessian":[4.8924652E1,3.0351624E1,1.8573029E1,1.6719748E1,1.3631875E1,6.166657E0,1.2406372E1,9.566927E0,7.152821E0,6.7738776E0,6.857997E0],"tree_param":{"num_deleted":"0","num_feature":"9","num_nodes":"11","size_leaf_vector":"1"}},{"base_weights":[-8.155828E-2,-2.3288909E-1,3.6643118E-2,1.785323E-1,-5.022611E-1,1.9289223E-2,-2.4560164E-3,-3.5829213E-2,-4.7368076E-2,-3.0819973E-2,1.5220003E-2],"categories":[],"categories_nodes":[],"categories_segments":[],"categories_sizes":[],"default_left":[0,0,0,0,0,0,0,0,0,0,0],"id":21,"left_children":[1,3,-1,5,7,-1,-1,9,-1,-1,-1],"loss_changes":[5.9937725E0,5.042636E0,0E0,1.0331504E0,5.0242944E0,0E0,0E0,3.6443388E0,0E0,0E0,0E0],"parents":[2147483647,0,0,1,1,3,3,4,4,7,7],"right_children":[2,4,-1,6,8,-1,-1,10,-1,-1,-1],"split_conditions":[1.5369385E0,8.908261E-1,3.6643118E-2,6.242877E-1,-3.3390217E-2,1.9289223E-2,-2.4560164E-3,9.694271E-1,-4.7368076E-2,-3.0819973E-2,1.5220003E-2],"split_indices":[6,6,0,5,4,0,0,6,0,0,0],"split_type":[0,0,0,0,0,0,0,0,0,0,0],"sum_hessian":[4.5890915E1,4.0421967E1,5.46895E0,1.5526334E1,2.4895632E1,8.549796E0,6.9765377E0,1.3760252E1,1.1135379E1,5.0274787E0,8.732773E0],"tree_param":{"num_deleted":"0","num_feature":"9","num_nodes":"11","size_leaf_vector":"1"}},{"base_weights":[5.416898E-2,-3.4473676E-2,3.0489115E-2,-2.4722697E-2,8.8501506E-2,2.5550377E-1,-1.9605402E-2,2.41718E-2,-5.08275E-3],"categories":[],"categories_nodes":[],"categories_segments":[],"categories_sizes":[],"default_left":[0,0,0,0,0,0,0,0,0],"id":22,"left_children":[1,3,-1,-1,5,7,-1,-1,-1],"loss_changes":[2.8258018E0,2.8260715E0,0E0,0E0,3.038206E0,2.6381001E0,0E0,0E0,0E0],"parents":[2147483647,0,0,1,1,4,4,5,5],"right_children":[2,4,-1,-1,6,8,-1,-1,-1],"split_conditions":[5.1395986E-2,-2.0491118E-2,3.0489115E-2,-2.4722697E-2,2.076197E-2,5.6877724E1,-1.9605402E-2,2.41718E-2,-5.08275E-3],"split_indices":[7,0,0,0,0,3,0,0,0],"split_type":[0,0,0,0,0,0,0,0,0],"sum_hessian":[4.8681255E1,4.2824955E1,5.8563013E0,8.617209E0,3.4207745E1,2.6853712E1,7.354035E0,1.6815308E1,1.0038404E1],"tree_param":{"num_deleted":"0","num_feature":"9","num_nodes":"9","size_leaf_vector":"1"}},{"base_weights":[1.4962626E-2,-2.6222444E-1,3.9717248E-1,-3.9726597E-1,3.1581537E-3,-1.1942671E-2,6.646896E-1,-1.8470076E-1,-3.714901E-2,4.806107E-2,3.041486E-3,8.742823E-3,-3.3170845E-2],"categories":[],"categories_nodes":[],"categories_segments":[],"categories_sizes":[],"default_left":[0,0,0,0,0,0,0,0,0,0,0,0,0],"id":23,"left_children":[1,3,5,7,-1,-1,9,11,-1,-1,-1,-1,-1],"loss_changes":[5.65947E0,1.5311334E0,4.4294033E0,9.1455626E-1,0E0,0E0,2.4541826E0,3.4859672E0,0E0,0E0,0E0,0E0,0E0],"parents":[2147483647,0,0,1,1,2,2,3,3,6,6,7,7],"right_children":[2,4,6,8,-1,-1,10,12,-1,-1,-1,-1,-1],"split_conditions":[1.0403966E0,2.4070334E-2,3.9322414E1,5.822303E-1,3.1581537E-3,-1.1942671E-2,5.905447E-1,8.7149066E-1,-3.714901E-2,4.806107E-2,3.041486E-3,8.742823E-3,-3.3170845E-2],"split_indices":[6,1,3,5,0,0,5,6,0,0,0,0,0],"split_type":[0,0,0,0,0,0,0,0,0,0,0,0,0],"sum_hessian":[4.8816635E1,2.790151E1,2.0915125E1,2.0491858E1,7.409653E0,5.7025304E0,1.5212595E1,1.5485355E1,5.0065017E0,8.853429E0,6.3591666E0,8.971786E0,6.5135703E0],"tree_param":{"num_deleted":"0","num_feature":"9","num_nodes":"13","size_leaf_vector":"1"}},{"base_weights":[2.510711E-2,-2.1197662E-1,7.127753E-1,6.9267504E-2,-5.087539E-1,4.7667596E-2,1.5173167E-2,4.9385365E-2,-2.8155906E-2,2.1807745E-3,-7.521504E-1,-1.2401795E-3,-6.1288845E-2],"categories":[],"categories_nodes":[],"categories_segments":[],"categories_sizes":[],"default_left":[0,0,0,0,0,0,0,0,0,0,0,0,0],"id":24,"left_children":[1,3,5,7,9,-1,-1,-1,-1,-1,11,-1,-1],"loss_changes":[8.738172E0,3.490047E0,1.5888023E-1,1.3276928E1,3.076213E0,0E0,0E0,0E0,0E0,0E0,4.2926683E0,0E0,0E0],"parents":[2147483647,0,0,1,1,2,2,3,3,4,4,10,10],"right_children":[2,4,6,8,10,-1,-1,-1,-1,-1,12,-1,-1],"split_conditions":[1.1884319E0,8.9082015E-1,1.409683E0,2.0268368E1,1.6743855E1,4.7667596E-2,1.5173167E-2,4.9385365E-2,-2.8155906E-2,2.1807745E-3,5.715335E-1,-1.2401795E-3,-6.1288845E-2],"split_indices":[6,6,6,8,8,0,0,0,0,0,5,0,0],"split_type":[0,0,0,0,0,0,0,0,0,0,0,0,0],"sum_hessian":[4.820758E1,3.633645E1,1.1871129E1,1.857864E1,1.7757809E1,5.0330396E0,6.83809E0,7.440052E0,1.1138588E1,5.3052683E0,1.2452541E1,6.1572676E0,6.295274E0],"tree_param":{"num_deleted":"0","num_feature":"9","num_nodes":"13","size_leaf_vector":"1"}},{"base_weights":[-0E0,3.475732E-1,-7.829321E-1,5.957982E-1,-1.341475E-2,-1.7446132E-2,-5.399373E-2,2.7721936E-1,4.690552E-2,-2.2632377E-3,2.9343396E-2],"categories":[],"categories_nodes":[],"categories_segments":[],"categories_sizes":[],"default_left":[0,0,0,0,0,0,0,0,0,0,0],"id":25,"left_children":[1,3,5,7,-1,-1,-1,9,-1,-1,-1],"loss_changes":[1.4348809E1,5.9335423E0,6.4326954E-1,1.7740364E0,0E0,0E0,0E0,2.059228E0,0E0,0E0,0E0],"parents":[2147483647,0,0,1,1,2,2,3,3,7,7],"right_children":[2,4,6,8,-1,-1,-1,10,-1,-1,-1],"split_conditions":[2.6573645E1,1.8508906E-2,5.8553826E-2,3.698177E-2,-1.341475E-2,-1.7446132E-2,-5.399373E-2,-9.430832E-3,4.690552E-2,-2.2632377E-3,2.9343396E-2],"split_indices":[8,0,2,7,0,0,0,0,0,0,0],"split_type":[0,0,0,0,0,0,0,0,0,0,0],"sum_hessian":[4.803297E1,3.3650898E1,1.4382074E1,2.4609217E1,9.041679E0,8.293813E0,6.0882607E0,1.5377874E1,9.231342E0,7.5783205E0,7.7995534E0],"tree_param":{"num_deleted":"0","num_feature":"9","num_nodes":"11","size_leaf_vector":"1"}},{"base_weights":[-1.0532298E-1,1.4827234E-1,-4.805278E-2,-0E0,3.8342737E-2,-1.5697759E-2,1.0120524E-1,1.7460236E-2,-1.5185441E-2],"categories":[],"categories_nodes":[],"categories_segments":[],"categories_sizes":[],"default_left":[0,0,0,0,0,0,0,0,0],"id":26,"left_children":[1,3,-1,5,-1,-1,7,-1,-1],"loss_changes":[1.1328808E1,3.398335E0,0E0,1.087246E0,0E0,0E0,3.0166812E0,0E0,0E0],"parents":[2147483647,0,0,1,1,3,3,6,6],"right_children":[2,4,-1,6,-1,-1,8,-1,-1],"split_conditions":[2.9089672E1,4.2542584E-2,-4.805278E-2,-3.8896456E-2,3.8342737E-2,-1.5697759E-2,1.4144085E-1,1.7460236E-2,-1.5185441E-2],"split_indices":[8,7,0,1,0,0,4,0,0],"split_type":[0,0,0,0,0,0,0,0,0],"sum_hessian":[4.701817E1,3.709444E1,9.923727E0,3.1854076E1,5.2403655E0,6.1518E0,2.5702276E1,1.6876097E1,8.8261795E0],"tree_param":{"num_deleted":"0","num_feature":"9","num_nodes":"9","size_leaf_vector":"1"}},{"base_weights":[-6.700716E-2,-2.86371E-2,4.5174908E-2,4.3051592E-1,-1.7887019E-1,7.2329463E-3,3.3680603E-2,-3.771446E-1,2.229701E-2,-3.8427178E-2,3.8170554E-3],"categories":[],"categories_nodes":[],"categories_segments":[],"categories_sizes":[],"default_left":[0,0,0,0,0,0,0,0,0,0,0],"id":27,"left_children":[1,-1,3,5,7,-1,-1,9,-1,-1,-1],"loss_changes":[3.2880125E0,0E0,4.072105E0,6.1603475E-1,3.8163774E0,0E0,0E0,4.585889E0,0E0,0E0,0E0],"parents":[2147483647,0,0,2,2,3,3,4,4,7,7],"right_children":[2,-1,4,6,8,-1,-1,10,-1,-1,-1],"split_conditions":[-5.420426E-1,-2.86371E-2,5.3316957E-1,-3.237454E-4,1.1884319E0,7.2329463E-3,3.3680603E-2,2.5722893E-2,2.229701E-2,-3.8427178E-2,3.8170554E-3],"split_indices":[4,0,5,1,6,0,0,1,0,0,0],"split_type":[0,0,0,0,0,0,0,0,0,0,0],"sum_hessian":[5.039295E1,8.467264E0,4.1925686E1,1.5557137E1,2.636855E1,9.5611315E0,5.996005E0,2.122585E1,5.1426992E0,1.1238817E1,9.987033E0],"tree_param":{"num_deleted":"0","num_feature":"9","num_nodes":"11","size_leaf_vector":"1"}},{"base_weights":[-1.2912523E-2,-3.460821E-2,9.7843885E-2,-1.656305E-1,2.8873512E-1,2.097062E-2,-3.0631572E-2,-0E0,4.2452406E-2,1.8451905E-2,-3.110657E-2],"categories":[],"categories_nodes":[],"categories_segments":[],"categories_sizes":[],"default_left":[0,0,0,0,0,0,0,0,0,0,0],"id":28,"left_children":[1,-1,3,5,7,-1,-1,9,-1,-1,-1],"loss_changes":[4.1916766E0,0E0,2.374247E0,5.498233E0,4.4930086E0,0E0,0E0,5.0671887E0,0E0,0E0,0E0],"parents":[2147483647,0,0,2,2,3,3,4,4,7,7],"right_children":[2,-1,4,6,8,-1,-1,10,-1,-1,-1],"split_conditions":[-1.747136E-1,-3.460821E-2,3.435634E-2,-2.9407132E-1,1.2184641E0,2.097062E-2,-3.0631572E-2,1.4144085E-1,4.2452406E-2,1.8451905E-2,-3.110657E-2],"split_indices":[2,0,7,4,6,0,0,4,0,0,0],"split_type":[0,0,0,0,0,0,0,0,0,0,0],"sum_hessian":[4.7966694E1,5.8857665E0,4.208093E1,1.6690088E1,2.539084E1,6.7978334E0,9.892255E0,1.799052E1,7.4003215E0,1.1729606E1,6.260914E0],"tree_param":{"num_deleted":"0","num_feature":"9","num_nodes":"11","size_leaf_vector":"1"}},{"base_weights":[-0E0,4.568095E-2,-1.6814187E-1,-4.649644E-1,4.482378E-1,-2.906134E-1,-4.216602E-2,4.2600855E-2,-1.0003167E-2,5.4035215E-3,-3.130198E-2],"categories":[],"categories_nodes":[],"categories_segments":[],"categories_sizes":[],"default_left":[0,0,0,0,0,0,0,0,0,0,0],"id":29,"left_children":[1,-1,3,5,7,9,-1,-1,-1,-1,-1],"loss_changes":[8.013036E0,0E0,8.754611E0,1.0708528E0,4.66378E0,3.8764315E0,0E0,0E0,0E0,0E0,0E0],"parents":[2147483647,0,0,2,2,3,3,4,4,5,5],"right_children":[2,-1,4,6,8,10,-1,-1,-1,-1,-1],"split_conditions":[1.5114352E1,4.568095E-2,1.1856493E0,2.7547312E1,3.5313286E1,8.908261E-1,-4.216602E-2,4.2600855E-2,-1.0003167E-2,5.4035215E-3,-3.130198E-2],"split_indices":[8,0,6,8,8,6,0,0,0,0,0],"split_type":[0,0,0,0,0,0,0,0,0,0,0],"sum_hessian":[4.958493E1,6.05788E0,4.352705E1,3.025838E1,1.3268669E1,2.403874E1,6.2196417E0,8.264256E0,5.0044136E0,1.0921978E1,1.3116762E1],"tree_param":{"num_deleted":"0","num_feature":"9","num_nodes":"11","size_leaf_vector":"1"}},{"base_weights":[4.4310376E-2,-2.8724644E-1,2.4068174E-1,3.9635096E-3,-2.5692377E-2,-2.4516938E-2,5.718378E-1,3.9813984E-2,4.0569906E-3],"categories":[],"categories_nodes":[],"categories_segments":[],"categories_sizes":[],"default_left":[0,0,0,0,0,0,0,0,0],"id":30,"left_children":[1,3,5,-1,-1,-1,7,-1,-1],"loss_changes":[3.2313998E0,1.7745149E0,8.371445E0,0E0,0E0,0E0,2.0183864E0,0E0,0E0],"parents":[2147483647,0,0,1,1,2,2,6,6],"right_children":[2,4,6,-1,-1,-1,8,-1,-1],"split_conditions":[3.4313165E-2,-1.056463E-2,-3.4952804E-2,3.9635096E-3,-2.5692377E-2,-2.4516938E-2,4.1349735E-2,3.9813984E-2,4.0569906E-3],"split_indices":[7,1,1,0,0,0,7,0,0],"split_type":[0,0,0,0,0,0,0,0,0],"sum_hessian":[4.5865078E1,1.5768883E1,3.0096195E1,5.6783123E0,1.00905695E1,8.612666E0,2.148353E1,1.3187295E1,8.296234E0],"tree_param":{"num_deleted":"0","num_feature":"9","num_nodes":"9","size_leaf_vector":"1"}},{"base_weights":[-0E0,-2.9560281E-2,1.0857669E-1,3.1276876E-1,-3.1385306E-2,-4.6047154E-3,3.0969044E-2,-4.1559506E-2,2.2163539E-1,-0E0,2.549758E-2],"categories":[],"categories_nodes":[],"categories_segments":[],"categories_sizes":[],"default_left":[0,0,0,0,0,0,0,0,0,0,0],"id":31,"left_children":[1,-1,3,5,7,-1,-1,-1,9,-1,-1],"loss_changes":[3.3996124E0,0E0,1.3667967E0,2.7119112E0,5.815712E0,0E0,0E0,0E0,1.2617351E0,0E0,0E0],"parents":[2147483647,0,0,2,2,3,3,4,4,8,8],"right_children":[2,-1,4,6,8,-1,-1,-1,10,-1,-1],"split_conditions":[-6.2010825E-1,-2.9560281E-2,-1.0080526E-1,8.540689E-1,3.2948103E-2,-4.6047154E-3,3.0969044E-2,-4.1559506E-2,5.597305E-1,-0E0,2.549758E-2],"split_indices":[4,0,4,6,7,0,0,0,4,0,0],"split_type":[0,0,0,0,0,0,0,0,0,0,0],"sum_hessian":[4.6517708E1,6.3025537E0,4.0215157E1,1.6803463E1,2.3411694E1,7.141754E0,9.661709E0,5.003017E0,1.8408676E1,1.1701697E1,6.7069793E0],"tree_param":{"num_deleted":"0","num_feature":"9","num_nodes":"11","size_leaf_vector":"1"}},{"base_weights":[1.4181991E-2,-2.9429784E-1,2.2912091E-1,1.3288264E-2,-5.704288E-1,-6.538697E-2,4.4664627E-1,-1.7020208E-3,-4.139884E-2,-2.1583272E-2,1.2657118E-2,5.6726336E-1,5.774846E-3,-0E0,4.6507407E-2],"categories":[],"categories_nodes":[],"categories_segments":[],"categories_sizes":[],"default_left":[0,0,0,0,0,0,0,0,0,0,0,0,0,0,0],"id":32,"left_children":[1,3,5,-1,7,9,11,-1,-1,-1,-1,13,-1,-1,-1],"loss_changes":[3.3445687E0,3.5486746E0,2.2285473E0,0E0,1.5336518E0,1.9289424E0,2.8666496E-1,0E0,0E0,0E0,0E0,2.2526462E0,0E0,0E0,0E0],"parents":[2147483647,0,0,1,1,2,2,4,4,5,5,6,6,11,11],"right_children":[2,4,6,-1,8,10,12,-1,-1,-1,-1,14,-1,-1,-1],"split_conditions":[3.435634E-2,-2.6579028E-2,1.0403966E0,1.3288264E-2,-1.8167387E-3,-3.237454E-4,5.905447E-1,-1.7020208E-3,-4.139884E-2,-2.1583272E-2,1.2657118E-2,-1.2556143E-1,5.774846E-3,-0E0,4.6507407E-2],"split_indices":[7,2,6,0,1,1,5,0,0,0,0,2,0,0,0],"split_type":[0,0,0,0,0,0,0,0,0,0,0,0,0,0,0],"sum_hessian":[4.690025E1,1.8000828E1,2.8899422E1,5.3711414E0,1.2629686E1,1.1894998E1,1.7004423E1,5.461303E0,7.1683826E0,5.932516E0,5.9624815E0,1.0312355E1,6.692069E0,5.129291E0,5.183064E0],"tree_param":{"num_deleted":"0","num_feature":"9","num_nodes":"15","size_leaf_vector":"1"}},{"base_weights":[-0E0,4.553378E-2,-1.7161055E-1,-6.6233883E-3,-3.0152751E-2,1.9634008E-1,-2.9843187E-1,-0E0,2.648501E-2,-3.1269517E-2,-0E0],"categories":[],"categories_nodes":[],"categories_segments":[],"categories_sizes":[],"default_left":[0,0,0,0,0,0,0,0,0,0,0],"id":33,"left_children":[1,-1,3,5,-1,7,9,-1,-1,-1,-1],"loss_changes":[8.299177E0,0E0,2.7180214E0,2.1618402E0,0E0,1.5239602E0,1.7782778E0,0E0,0E0,0E0,0E0],"parents":[2147483647,0,0,2,2,3,3,5,5,6,6],"right_children":[2,-1,4,6,-1,8,10,-1,-1,-1,-1],"split_conditions":[1.5253715E1,4.553378E-2,2.9089672E1,5.8242613E-1,-3.0152751E-2,3.7929926E-2,3.360044E-2,-0E0,2.648501E-2,-3.1269517E-2,-0E0],"split_indices":[8,0,8,5,0,7,7,0,0,0,0],"split_type":[0,0,0,0,0,0,0,0,0,0,0],"sum_hessian":[4.7073494E1,6.495093E0,4.05784E1,3.1660732E1,8.917669E0,1.804833E1,1.3612403E1,1.1862454E1,6.1858754E0,6.1018586E0,7.510544E0],"tree_param":{"num_deleted":"0","num_feature":"9","num_nodes":"11","size_leaf_vector":"1"}},{"base_weights":[1.5860602E-2,2.67836E-1,-6.202261E-1,5.086728E-2,3.904831E-2,-4.1951906E-2,-8.169756E-3,4.1361425E-2,-1.8424278E-1,-0E0,-1.9787308E-2],"categories":[],"categories_nodes":[],"categories_segments":[],"categories_sizes":[],"default_left":[0,0,0,0,0,0,0,0,0,0,0],"id":34,"left_children":[1,3,5,7,-1,-1,-1,-1,9,-1,-1],"loss_changes":[7.777408E0,3.514719E0,5.772619E-1,5.7625375E0,0E0,0E0,0E0,0E0,8.242841E-1,0E0,0E0],"parents":[2147483647,0,0,1,1,2,2,3,3,8,8],"right_children":[2,4,6,8,-1,-1,-1,-1,10,-1,-1],"split_conditions":[2.7615164E1,1.0561513E0,1.338294E0,1.5086154E1,3.904831E-2,-4.1951906E-2,-8.169756E-3,4.1361425E-2,5.822303E-1,-0E0,-1.9787308E-2],"split_indices":[8,6,6,8,0,0,0,0,5,0,0],"split_type":[0,0,0,0,0,0,0,0,0,0,0],"sum_hessian":[4.555086E1,3.4018787E1,1.1532071E1,2.6139011E1,7.8797784E0,5.925899E0,5.6061716E0,5.39937E0,2.0739641E1,1.25478325E1,8.191808E0],"tree_param":{"num_deleted":"0","num_feature":"9","num_nodes":"11","size_leaf_vector":"1"}},{"base_weights":[-6.920741E-3,-2.785523E-1,4.2218846E-1,-3.9182758E-1,7.1449988E-3,-0E0,6.234267E-1,-1.4620018E-1,-2.9782755E-2,4.1305613E-2,9.141023E-3,-2.3633644E-2,3.2322276E-3],"categories":[],"categories_nodes":[],"categories_segments":[],"categories_sizes":[],"default_left":[0,0,0,0,0,0,0,0,0,0,0,0,0],"id":35,"left_children":[1,3,5,7,-1,-1,9,11,-1,-1,-1,-1,-1],"loss_changes":[5.7308044E0,1.724406E0,1.8281155E0,7.583549E-1,0E0,0E0,3.7517166E-1,1.3368752E0,0E0,0E0,0E0,0E0,0E0],"parents":[2147483647,0,0,1,1,2,2,3,3,6,6,7,7],"right_children":[2,4,6,8,-1,-1,10,12,-1,-1,-1,-1,-1],"split_conditions":[1.0561513E0,7.3230517E-1,3.9322414E1,5.2535854E1,7.1449988E-3,-0E0,5.4748173E1,-5.279918E-1,-2.9782755E-2,4.1305613E-2,9.141023E-3,-2.3633644E-2,3.2322276E-3],"split_indices":[6,5,3,3,0,0,3,4,0,0,0,0,0],"split_type":[0,0,0,0,0,0,0,0,0,0,0,0,0],"sum_hessian":[4.5764572E1,2.9167866E1,1.6596704E1,2.403488E1,5.1329865E0,5.3644724E0,1.1232232E1,1.3569824E1,1.04650545E1,5.717436E0,5.5147967E0,5.2808075E0,8.289018E0],"tree_param":{"num_deleted":"0","num_feature":"9","num_nodes":"13","size_leaf_vector":"1"}},{"base_weights":[1.4881368E-2,2.1888536E-1,-5.6655943E-1,3.2621045E-3,3.66275E-2,-4.6062686E-2,-0E0,3.976852E-1,-4.9791217E-1,2.5634617E-2,1.450952E-3,-0E0,-4.2654283E-2],"categories":[],"categories_nodes":[],"categories_segments":[],"categories_sizes":[],"default_left":[0,0,0,0,0,0,0,0,0,0,0,0,0],"id":36,"left_children":[1,3,5,7,-1,-1,-1,9,11,-1,-1,-1,-1],"loss_changes":[5.8070345E0,3.8203075E0,2.3119483E0,6.149405E0,0E0,0E0,0E0,4.667859E-1,2.4050715E0,0E0,0E0,0E0,0E0],"parents":[2147483647,0,0,1,1,2,2,3,3,7,7,8,8],"right_children":[2,4,6,8,-1,-1,-1,10,12,-1,-1,-1,-1],"split_conditions":[2.8450066E1,1.0620161E0,1.2184641E0,8.908261E-1,3.66275E-2,-4.6062686E-2,-0E0,5.893533E-2,5.2266075E1,2.5634617E-2,1.450952E-3,-0E0,-4.2654283E-2],"split_indices":[8,6,6,6,0,0,0,2,3,0,0,0,0],"split_type":[0,0,0,0,0,0,0,0,0,0,0,0,0],"sum_hessian":[4.6331055E1,3.585723E1,1.0473823E1,2.7358807E1,8.498426E0,5.4417977E0,5.0320253E0,1.609932E1,1.1259487E1,1.064194E1,5.457379E0,5.4377384E0,5.8217487E0],"tree_param":{"num_deleted":"0","num_feature":"9","num_nodes":"13","size_leaf_vector":"1"}},{"base_weights":[-7.8351334E-2,-4.0176988E-1,6.2382083E-2,-2.9955247E-2,-1.9797978E-3,-2.746687E-1,2.6950324E-1,-0E0,-2.5301559E-2,-6.78035E-3,4.3665764E-1,3.0286802E-2,5.282873E-3],"categories":[],"categories_nodes":[],"categories_segments":[],"categories_sizes":[],"default_left":[0,0,0,0,0,0,0,0,0,0,0,0,0],"id":37,"left_children":[1,3,5,-1,-1,7,9,-1,-1,-1,11,-1,-1],"loss_changes":[2.3129966E0,7.2596264E-1,2.4281304E0,0E0,0E0,9.1449124E-1,1.770958E0,0E0,0E0,0E0,4.704888E-1,0E0,0E0],"parents":[2147483647,0,0,1,1,2,2,5,5,6,6,10,10],"right_children":[2,4,6,-1,-1,8,10,-1,-1,-1,12,-1,-1],"split_conditions":[-1.4188013E-2,3.3372727E-1,3.324186E-2,-2.9955247E-2,-1.9797978E-3,-3.108794E-1,-2.1531127E-2,-0E0,-2.5301559E-2,-6.78035E-3,3.8688418E-2,3.0286802E-2,5.282873E-3],"split_indices":[0,5,7,0,0,4,1,0,0,0,1,0,0],"split_type":[0,0,0,0,0,0,0,0,0,0,0,0,0],"sum_hessian":[4.398791E1,1.3289821E1,3.0698092E1,6.862025E0,6.427796E0,1.0517133E1,2.0180958E1,5.258033E0,5.2591E0,5.131247E0,1.5049711E1,7.862736E0,7.1869745E0],"tree_param":{"num_deleted":"0","num_feature":"9","num_nodes":"13","size_leaf_vector":"1"}},{"base_weights":[-2.9439272E-2,-1.4381164E-1,3.1094987E-2,1.9742584E-1,-3.4185088E-1,2.7634531E-2,-1.2439603E-2,-5.057046E-2,-4.042612E-2,-2.180183E-2,7.942195E-3],"categories":[],"categories_nodes":[],"categories_segments":[],"categories_sizes":[],"default_left":[0,0,0,0,0,0,0,0,0,0,0],"id":38,"left_children":[1,3,-1,5,7,-1,-1,9,-1,-1,-1],"loss_changes":[3.6344895E0,3.2120872E0,0E0,3.0695305E0,3.5388644E0,0E0,0E0,1.9834477E0,0E0,0E0,0E0],"parents":[2147483647,0,0,1,1,3,3,4,4,7,7],"right_children":[2,4,-1,6,8,-1,-1,10,-1,-1,-1],"split_conditions":[1.548693E0,8.9082015E-1,3.1094987E-2,6.2280055E-2,1.6146323E-1,2.7634531E-2,-1.2439603E-2,3.3984053E-1,-4.042612E-2,-2.180183E-2,7.942195E-3],"split_indices":[6,6,0,2,4,0,0,5,0,0,0],"split_type":[0,0,0,0,0,0,0,0,0,0,0],"sum_hessian":[4.7595966E1,4.24653E1,5.1306653E0,1.4669691E1,2.779561E1,8.525366E0,6.1443253E0,1.913829E1,8.657321E0,6.815803E0,1.2322487E1],"tree_param":{"num_deleted":"0","num_feature":"9","num_nodes":"11","size_leaf_vector":"1"}},{"base_weights":[1.0342074E-3,2.9477436E-2,-1.0450199E-1,-2.654612E-1,2.1426797E-1,3.4319565E-2,-5.23371E-1,3.653948E-2,-1.3036675E-2,1.5425826E-2,-7.1316063E-3,-3.8423974E-2,-1.0554587E-2],"categories":[],"categories_nodes":[],"categories_segments":[],"categories_sizes":[],"default_left":[0,0,0,0,0,0,0,0,0,0,0,0,0],"id":39,"left_children":[1,-1,3,5,7,9,11,-1,-1,-1,-1,-1,-1],"loss_changes":[3.1083064E0,0E0,2.1106932E0,2.4039774E0,3.794718E0,8.347983E-1,3.9387178E-1,0E0,0E0,0E0,0E0,0E0,0E0],"parents":[2147483647,0,0,2,2,3,3,4,4,5,5,6,6],"right_children":[2,-1,4,6,8,10,12,-1,-1,-1,-1,-1,-1],"split_conditions":[1.5253715E1,2.9477436E-2,4.1794896E-2,8.908261E-1,3.0950438E1,2.1835764E1,9.335288E-1,3.653948E-2,-1.3036675E-2,1.5425826E-2,-7.1316063E-3,-3.8423974E-2,-1.0554587E-2],"split_indices":[8,0,7,6,8,8,6,0,0,0,0,0,0],"split_type":[0,0,0,0,0,0,0,0,0,0,0,0,0],"sum_hessian":[4.2156876E1,5.735966E0,3.642091E1,2.546543E1,1.095548E1,1.168204E1,1.3783389E1,5.2366834E0,5.7187963E0,5.1070247E0,6.575016E0,5.188248E0,8.59514E0],"tree_param":{"num_deleted":"0","num_feature":"9","num_nodes":"13","size_leaf_vector":"1"}},{"base_weights":[-1.584859E-2,3.218216E-2,-1.6979928E-1,-5.33607E-1,2.527434E-2,-6.63031E-1,-0E0,-2.951938E-4,-4.2178147E-2],"categories":[],"categories_nodes":[],"categories_segments":[],"categories_sizes":[],"default_left":[0,0,0,0,0,0,0,0,0],"id":40,"left_children":[1,-1,3,5,-1,7,-1,-1,-1],"loss_changes":[4.6070194E0,0E0,1.01672735E1,1.8905644E0,0E0,2.1413145E0,0E0,0E0,0E0],"parents":[2147483647,0,0,2,2,3,3,5,5],"right_children":[2,-1,4,6,-1,8,-1,-1,-1],"split_conditions":[1.5382757E1,3.218216E-2,1.0620161E0,7.3179567E-1,2.527434E-2,8.138008E-1,-0E0,-2.951938E-4,-4.2178147E-2],"split_indices":[8,0,6,5,0,6,0,0,0],"split_type":[0,0,0,0,0,0,0,0,0],"sum_hessian":[4.3556942E1,6.424838E0,3.7132103E1,2.488529E1,1.2246813E1,1.971421E1,5.171081E0,5.290834E0,1.4423376E1],"tree_param":{"num_deleted":"0","num_feature":"9","num_nodes":"9","size_leaf_vector":"1"}},{"base_weights":[6.2697396E-2,2.8405803E-1,-3.0393323E-2,4.6636903E-1,-1.0079093E-2,1.3742609E-4,2.8519934E-2],"categories":[],"categories_nodes":[],"categories_segments":[],"categories_sizes":[],"default_left":[0,0,0,0,0,0,0],"id":41,"left_children":[1,3,-1,5,-1,-1,-1],"loss_changes":[7.19692E0,3.6358173E0,0E0,1.0886073E0,0E0,0E0,0E0],"parents":[2147483647,0,0,1,1,3,3],"right_children":[2,4,-1,6,-1,-1,-1],"split_conditions":[2.8994904E1,1.8805841E-2,-3.0393323E-2,3.0759912E-2,-1.0079093E-2,1.3742609E-4,2.8519934E-2],"split_indices":[8,0,0,7,0,0,0],"split_type":[0,0,0,0,0,0,0],"sum_hessian":[4.524908E1,3.5446285E1,9.802795E0,2.657781E1,8.868477E0,6.127783E0,2.0450026E1],"tree_param":{"num_deleted":"0","num_feature":"9","num_nodes":"7","size_leaf_vector":"1"}},{"base_weights":[-4.3536653E-3,2.0761696E-1,-3.5325357E-1,-1.1686321E-2,4.2429304E-1,-3.0959388E-2,-0E0,3.2089386E-2,-0E0],"categories":[],"categories_nodes":[],"categories_segments":[],"categories_sizes":[],"default_left":[0,0,0,0,0,0,0,0,0],"id":42,"left_children":[1,3,5,-1,7,-1,-1,-1,-1],"loss_changes":[3.8800595E0,3.2732286E0,2.2197611E0,0E0,1.9328222E0,0E0,0E0,0E0,0E0],"parents":[2147483647,0,0,1,1,2,2,4,4],"right_children":[2,4,6,-1,8,-1,-1,-1,-1],"split_conditions":[3.7201017E-2,-5.420426E-1,3.6935797E-1,-1.1686321E-2,-3.3390217E-2,-3.0959388E-2,-0E0,3.2089386E-2,-0E0],"split_indices":[2,4,4,0,4,0,0,0,0],"split_type":[0,0,0,0,0,0,0,0,0],"sum_hessian":[4.749608E1,2.9158144E1,1.8337934E1,8.789666E0,2.0368477E1,1.0409427E1,7.928508E0,1.24691E1,7.899377E0],"tree_param":{"num_deleted":"0","num_feature":"9","num_nodes":"9","size_leaf_vector":"1"}},{"base_weights":[1.0989674E-2,-3.3373486E-2,1.5134053E-1,-4.469017E-2,4.451682E-2,-2.1257931E-1,1.2540422E-2,1.9810954E-4,-2.5563044E-2],"categories":[],"categories_nodes":[],"categories_segments":[],"categories_sizes":[],"default_left":[0,0,0,0,0,0,0,0,0],"id":43,"left_children":[1,-1,3,5,-1,7,-1,-1,-1],"loss_changes":[4.11837E0,0E0,6.0891833E0,1.6676081E0,0E0,1.7111034E0,0E0,0E0,0E0],"parents":[2147483647,0,0,2,2,3,3,5,5],"right_children":[2,-1,4,6,-1,8,-1,-1,-1],"split_conditions":[-1.747136E-1,-3.3373486E-2,1.1856493E0,2.4070334E-2,4.451682E-2,-2.28954E-3,1.2540422E-2,1.9810954E-4,-2.5563044E-2],"split_indices":[2,0,6,1,0,0,0,0,0],"split_type":[0,0,0,0,0,0,0,0,0],"sum_hessian":[4.1838497E1,5.2732997E0,3.65652E1,2.9849571E1,6.7156277E0,2.0471724E1,9.377849E0,1.2041318E1,8.430405E0],"tree_param":{"num_deleted":"0","num_feature":"9","num_nodes":"9","size_leaf_vector":"1"}},{"base_weights":[-0E0,-3.000611E-1,1.2905052E-1,2.622308E-3,-3.025412E-2,3.9544303E-2,-6.579156E-2,2.4249073E-2,-2.89607E-1,-2.2202693E-2,-6.6766475E-4],"categories":[],"categories_nodes":[],"categories_segments":[],"categories_sizes":[],"default_left":[0,0,0,0,0,0,0,0,0,0,0],"id":44,"left_children":[1,3,5,-1,-1,-1,7,-1,9,-1,-1],"loss_changes":[1.700057E0,1.7245286E0,4.651787E0,0E0,0E0,0E0,3.4297173E0,0E0,6.393969E-1,0E0,0E0],"parents":[2147483647,0,0,1,1,2,2,6,6,8,8],"right_children":[2,4,6,-1,-1,-1,8,-1,10,-1,-1],"split_conditions":[4.421846E1,2.2468023E-1,-1.9214679E-2,2.622308E-3,-3.025412E-2,3.9544303E-2,1.5691163E1,2.4249073E-2,9.6275024E-2,-2.2202693E-2,-6.6766475E-4],"split_indices":[3,5,2,0,0,0,8,0,2,0,0],"split_type":[0,0,0,0,0,0,0,0,0,0,0],"sum_hessian":[4.1333576E1,1.0878658E1,3.0454918E1,5.05434E0,5.824319E0,6.1187687E0,2.433615E1,5.7120314E0,1.8624119E1,1.0005515E1,8.618604E0],"tree_param":{"num_deleted":"0","num_feature":"9","num_nodes":"11","size_leaf_vector":"1"}},{"base_weights":[4.0065296E-2,-2.4533316E-2,1.9555004E-1,-0E0,3.118171E-1,-7.9317335E-3,9.923439E-3,-1.4115537E-3,4.793256E-1,3.233142E-2,2.3856708E-3],"categories":[],"categories_nodes":[],"categories_segments":[],"categories_sizes":[],"default_left":[0,0,0,0,0,0,0,0,0,0,0],"id":45,"left_children":[1,-1,3,5,7,-1,-1,-1,9,-1,-1],"loss_changes":[3.6664956E0,0E0,7.9938877E-1,5.5953884E-1,1.5298035E0,0E0,0E0,0E0,7.5504756E-1,0E0,0E0],"parents":[2147483647,0,0,2,2,3,3,4,4,8,8],"right_children":[2,-1,4,6,8,-1,-1,-1,10,-1,-1],"split_conditions":[-5.420426E-1,-2.4533316E-2,-5.434797E-3,9.64546E-1,3.344018E-2,-7.9317335E-3,9.923439E-3,-1.4115537E-3,2.2041941E-2,3.233142E-2,2.3856708E-3],"split_indices":[4,0,0,6,7,0,0,0,0,0,0],"split_type":[0,0,0,0,0,0,0,0,0,0,0],"sum_hessian":[4.18939E1,7.786901E0,3.4107E1,1.3684747E1,2.0422253E1,7.6352673E0,6.0494795E0,6.3036413E0,1.4118611E1,8.621812E0,5.4968E0],"tree_param":{"num_deleted":"0","num_feature":"9","num_nodes":"11","size_leaf_vector":"1"}},{"base_weights":[-2.6489636E-3,-1.3079803E-1,3.566412E-2,1.2577964E-1,-3.8874257E-2,-2.5849424E-2,2.654861E-1,-1.7673803E-2,2.002049E-2,-3.271302E-3,2.422919E-2],"categories":[],"categories_nodes":[],"categories_segments":[],"categories_sizes":[],"default_left":[0,0,0,0,0,0,0,0,0,0,0],"id":46,"left_children":[1,3,-1,5,-1,7,9,-1,-1,-1,-1],"loss_changes":[4.4006844E0,7.811151E0,0E0,8.245937E-1,0E0,2.4591246E0,1.6412617E0,0E0,0E0,0E0,0E0],"parents":[2147483647,0,0,1,1,3,3,5,5,6,6],"right_children":[2,4,-1,6,-1,8,10,-1,-1,-1,-1],"split_conditions":[1.5190734E0,2.6573645E1,3.566412E-2,4.7560883E-1,-3.8874257E-2,9.1850203E-1,3.360044E-2,-1.7673803E-2,2.002049E-2,-3.271302E-3,2.422919E-2],"split_indices":[6,8,0,5,0,6,7,0,0,0,0],"split_type":[0,0,0,0,0,0,0,0,0,0,0],"sum_hessian":[4.7106644E1,4.193367E1,5.172974E0,3.0622005E1,1.1311666E1,1.3749802E1,1.6872204E1,8.630677E0,5.119124E0,6.370804E0,1.0501401E1],"tree_param":{"num_deleted":"0","num_feature":"9","num_nodes":"11","size_leaf_vector":"1"}},{"base_weights":[9.8069474E-2,-1.3622761E-2,1.707966E-1,-8.9209145E-3,2.8711545E-1,4.2794835E-2,2.7089713E-2,-1.9535497E-2,1.8597085E-2],"categories":[],"categories_nodes":[],"categories_segments":[],"categories_sizes":[],"default_left":[0,0,0,0,0,0,0,0,0],"id":47,"left_children":[1,-1,3,-1,5,-1,7,-1,-1],"loss_changes":[1.2909858E0,0E0,1.826071E0,0E0,4.3435287E0,0E0,3.8957608E0,0E0,0E0],"parents":[2147483647,0,0,2,2,4,4,6,6],"right_children":[2,-1,4,-1,6,-1,8,-1,-1],"split_conditions":[-2.6883192E-2,-1.3622761E-2,8.238999E-1,-8.9209145E-3,8.908261E-1,4.2794835E-2,1.0561513E0,-1.9535497E-2,1.8597085E-2],"split_indices":[0,0,6,0,6,0,6,0,0],"split_type":[0,0,0,0,0,0,0,0,0],"sum_hessian":[4.434049E1,5.2460027E0,3.9094486E1,8.427375E0,3.0667112E1,7.580169E0,2.3086943E1,9.663471E0,1.3423472E1],"tree_param":{"num_deleted":"0","num_feature":"9","num_nodes":"9","size_leaf_vector":"1"}},{"base_weights":[-3.86953E-2,3.002492E-2,-1.609812E-1,-3.7205884E-1,1.8363727E-2,-4.1513395E-2,-1.5734074E-1,5.919527E-3,-2.8866494E-2],"categories":[],"categories_nodes":[],"categories_segments":[],"categories_sizes":[],"default_left":[0,0,0,0,0,0,0,0,0],"id":48,"left_children":[1,-1,3,5,-1,-1,7,-1,-1],"loss_changes":[3.582112E0,0E0,4.845746E0,2.2903986E0,0E0,0E0,3.178833E0,0E0,0E0],"parents":[2147483647,0,0,2,2,3,3,6,6],"right_children":[2,-1,4,6,-1,-1,8,-1,-1],"split_conditions":[1.5114352E1,3.002492E-2,1.1856493E0,1.8949873E1,1.8363727E-2,-4.1513395E-2,6.2280055E-2,5.919527E-3,-2.8866494E-2],"split_indices":[8,0,6,8,0,0,2,0,0],"split_type":[0,0,0,0,0,0,0,0,0],"sum_hessian":[4.4165955E1,5.179979E0,3.8985977E1,2.8954407E1,1.003157E1,6.666302E0,2.2288103E1,1.36031065E1,8.684998E0],"tree_param":{"num_deleted":"0","num_feature":"9","num_nodes":"9","size_leaf_vector":"1"}},{"base_weights":[1.628954E-3,3.396793E-2,-1.14465654E-1,-3.3839655E-1,3.1304488E-1,1.346588E-2,-6.548263E-1,-1.2794468E-2,3.5730597E-2,-4.3082748E-2,-0E0],"categories":[],"categories_nodes":[],"categories_segments":[],"categories_sizes":[],"default_left":[0,0,0,0,0,0,0,0,0,0,0],"id":49,"left_children":[1,-1,3,5,7,-1,9,-1,-1,-1,-1],"loss_changes":[4.234108E0,0E0,4.2714577E0,6.212594E0,3.9769645E0,0E0,2.571638E0,0E0,0E0,0E0,0E0],"parents":[2147483647,0,0,2,2,3,3,4,4,6,6],"right_children":[2,-1,4,6,8,-1,10,-1,-1,-1,-1],"split_conditions":[1.5086154E1,3.396793E-2,1.1856493E0,-2.6579028E-2,-1.759577E-1,1.346588E-2,4.24397E-2,-1.2794468E-2,3.5730597E-2,-4.3082748E-2,-0E0],"split_indices":[8,0,6,2,2,0,1,0,0,0,0],"split_type":[0,0,0,0,0,0,0,0,0,0,0],"sum_hessian":[4.6247307E1,5.9742885E0,4.0273018E1,2.7470417E1,1.2802602E1,8.966873E0,1.8503544E1,5.0823817E0,7.72022E0,1.3305433E1,5.198111E0],"tree_param":{"num_deleted":"0","num_feature":"9","num_nodes":"11","size_leaf_vector":"1"}},{"base_weights":[-0E0,2.3686053E-1,-3.4350282E-1,-3.3058827E-3,3.7455407E-1,-5.284683E-1,2.2405402E-3,3.1439412E-2,-1.8042148E-3,-2.3158735E-3,-4.263827E-2],"categories":[],"categories_nodes":[],"categories_segments":[],"categories_sizes":[],"default_left":[0,0,0,0,0,0,0,0,0,0,0],"id":50,"left_children":[1,3,5,-1,7,9,-1,-1,-1,-1,-1],"loss_changes":[3.8010569E0,1.364216E0,1.6529815E0,0E0,2.488144E0,1.6433022E0,0E0,0E0,0E0,0E0,0E0],"parents":[2147483647,0,0,1,1,2,2,4,4,5,5],"right_children":[2,4,6,-1,8,10,-1,-1,-1,-1,-1],"split_conditions":[2.4937859E1,-1.2470068E-2,4.9838006E-2,-3.3058827E-3,1.8805841E-2,2.8994904E1,2.2405402E-3,3.1439412E-2,-1.8042148E-3,-2.3158735E-3,-4.263827E-2],"split_indices":[8,0,7,0,0,8,0,0,0,0,0],"split_type":[0,0,0,0,0,0,0,0,0,0,0],"sum_hessian":[4.280467E1,2.5816881E1,1.6987787E1,7.2570333E0,1.8559847E1,1.1889985E1,5.097803E0,1.1558736E1,7.0011115E0,6.3204527E0,5.569532E0],"tree_param":{"num_deleted":"0","num_feature":"9","num_nodes":"11","size_leaf_vector":"1"}},{"base_weights":[2.5047792E-2,3.7254974E-2,-8.909438E-2,-2.6206488E-2,3.5257332E-2,2.4033878E-2,-2.1559946E-1,-3.1100458E-2,1.1762876E-2],"categories":[],"categories_nodes":[],"categories_segments":[],"categories_sizes":[],"default_left":[0,0,0,0,0,0,0,0,0],"id":51,"left_children":[1,-1,3,-1,5,-1,7,-1,-1],"loss_changes":[4.3049016E0,0E0,2.5296533E0,0E0,4.060739E0,0E0,4.5108833E0,0E0,0E0],"parents":[2147483647,0,0,2,2,4,4,6,6],"right_children":[2,-1,4,-1,6,-1,8,-1,-1],"split_conditions":[1.5253715E1,3.7254974E-2,-5.420426E-1,-2.6206488E-2,-1.357423E-1,2.4033878E-2,3.6935797E-1,-3.1100458E-2,1.1762876E-2],"split_indices":[8,0,4,0,4,0,4,0,0],"split_type":[0,0,0,0,0,0,0,0,0],"sum_hessian":[4.477226E1,5.212803E0,3.9559456E1,8.258556E0,3.13009E1,1.1335146E1,1.9965754E1,1.0684418E1,9.281336E0],"tree_param":{"num_deleted":"0","num_feature":"9","num_nodes":"9","size_leaf_vector":"1"}},{"base_weights":[1.3821318E-2,2.1778472E-1,-2.6740158E-2,-1.3919703E-2,3.505037E-1,4.7506434E-1,-0E0,-0E0,3.2954317E-2],"categories":[],"categories_nodes":[],"categories_segments":[],"categories_sizes":[],"default_left":[0,0,0,0,0,0,0,0,0],"id":52,"left_children":[1,3,-1,-1,5,7,-1,-1,-1],"loss_changes":[4.973727E0,2.4703717E0,0E0,0E0,1.1256402E0,1.7399449E0,0E0,0E0,0E0],"parents":[2147483647,0,0,1,1,4,4,5,5],"right_children":[2,4,-1,-1,6,8,-1,-1,-1],"split_conditions":[2.8450066E1,-5.420426E-1,-2.6740158E-2,-1.3919703E-2,6.8830615E-1,1.7589283E1,-0E0,-0E0,3.2954317E-2],"split_indices":[8,4,0,0,5,8,0,0,0],"split_type":[0,0,0,0,0,0,0,0,0],"sum_hessian":[4.1783043E1,3.2002747E1,9.780296E0,5.4953647E0,2.6507383E1,1.8505703E1,8.001679E0,5.8466897E0,1.2659014E1],"tree_param":{"num_deleted":"0","num_feature":"9","num_nodes":"9","size_leaf_vector":"1"}},{"base_weights":[9.088416E-2,2.725864E-1,-2.4704011E-2,1.9444436E-2,4.0619366E-2,1.7199067E-2,-8.340642E-2,1.8360782E-2,-1.7172834E-2],"categories":[],"categories_nodes":[],"categories_segments":[],"categories_sizes":[],"default_left":[0,0,0,0,0,0,0,0,0],"id":53,"left_children":[1,3,-1,5,-1,-1,7,-1,-1],"loss_changes":[4.970145E0,4.5374317E0,0E0,1.1060557E0,0E0,0E0,2.7402096E0,0E0,0E0],"parents":[2147483647,0,0,1,1,3,3,6,6],"right_children":[2,4,-1,6,-1,-1,8,-1,-1],"split_conditions":[2.9089672E1,1.0620161E0,-2.4704011E-2,-3.6028393E-2,4.0619366E-2,1.7199067E-2,1.7231583E1,1.8360782E-2,-1.7172834E-2],"split_indices":[8,6,0,2,0,0,8,0,0],"split_type":[0,0,0,0,0,0,0,0,0],"sum_hessian":[4.3268257E1,3.4480625E1,8.787631E0,2.5514025E1,8.966601E0,6.1814556E0,1.933257E1,6.0690536E0,1.3263515E1],"tree_param":{"num_deleted":"0","num_feature":"9","num_nodes":"9","size_leaf_vector":"1"}},{"base_weights":[1.02521844E-1,2.6706493E-1,-1.9192639E-1,-4.5063738E-2,5.138054E-1,4.783612E-3,-2.583842E-2,1.0327763E-2,-1.933744E-2,-0E0,3.383582E-2],"categories":[],"categories_nodes":[],"categories_segments":[],"categories_sizes":[],"default_left":[0,0,0,0,0,0,0,0,0,0,0],"id":54,"left_children":[1,3,5,7,9,-1,-1,-1,-1,-1,-1],"loss_changes":[2.3069031E0,2.6385782E0,1.8142264E0,1.4931521E0,1.1839557E0,0E0,0E0,0E0,0E0,0E0,0E0],"parents":[2147483647,0,0,1,1,2,2,3,3,4,4],"right_children":[2,4,6,8,10,-1,-1,-1,-1,-1,-1],"split_conditions":[5.7116886E1,9.64546E-1,8.89502E-1,-2.6099043E-2,-1.4937325E-1,4.783612E-3,-2.583842E-2,1.0327763E-2,-1.933744E-2,-0E0,3.383582E-2],"split_indices":[3,6,6,2,2,0,0,0,0,0,0],"split_type":[0,0,0,0,0,0,0,0,0,0,0],"sum_hessian":[4.272335E1,2.8616188E1,1.4107162E1,1.24611025E1,1.6155085E1,7.414496E0,6.692667E0,6.789153E0,5.6719494E0,5.1036806E0,1.1051405E1],"tree_param":{"num_deleted":"0","num_feature":"9","num_nodes":"11","size_leaf_vector":"1"}},{"base_weights":[-2.8637746E-2,6.4356E-2,-3.0674693E-1,3.6097917E-1,-2.4394697E-2,-2.4545632E-2,-0E0,4.21386E-2,3.6185678E-2,-1.1772916E-2,1.4264153E-2],"categories":[],"categories_nodes":[],"categories_segments":[],"categories_sizes":[],"default_left":[0,0,0,0,0,0,0,0,0,0,0],"id":55,"left_children":[1,3,5,7,-1,-1,-1,9,-1,-1,-1],"loss_changes":[1.2518634E0,5.5184216E0,5.8734214E-1,2.1592226E0,0E0,0E0,0E0,1.1606277E0,0E0,0E0,0E0],"parents":[2147483647,0,0,1,1,2,2,3,3,7,7],"right_children":[2,4,6,8,-1,-1,-1,10,-1,-1,-1],"split_conditions":[6.8830615E-1,2.7547312E1,3.56202E-2,9.64546E-1,-2.4394697E-2,-2.4545632E-2,-0E0,1.9270765E1,3.6185678E-2,-1.1772916E-2,1.4264153E-2],"split_indices":[5,8,7,6,0,0,0,8,0,0,0],"split_type":[0,0,0,0,0,0,0,0,0,0,0],"sum_hessian":[4.0191956E1,2.9925009E1,1.0266947E1,2.0507925E1,9.417084E0,5.226634E0,5.040313E0,1.2835971E1,7.6719546E0,5.0627193E0,7.773251E0],"tree_param":{"num_deleted":"0","num_feature":"9","num_nodes":"11","size_leaf_vector":"1"}},{"base_weights":[1.8193351E-2,3.504356E-1,-1.2317671E-1,-1.1747776E-3,3.082723E-2,-3.258888E-1,1.4174359E-1,-2.851988E-3,-2.1883266E-2,1.802159E-2,-1.6968632E-3],"categories":[],"categories_nodes":[],"categories_segments":[],"categories_sizes":[],"default_left":[0,0,0,0,0,0,0,0,0,0,0],"id":56,"left_children":[1,3,5,-1,-1,7,9,-1,-1,-1,-1],"loss_changes":[2.2365794E0,1.7702093E0,1.8407538E0,0E0,0E0,2.7813172E-1,7.138317E-1,0E0,0E0,0E0,0E0],"parents":[2147483647,0,0,1,1,2,2,5,5,6,6],"right_children":[2,4,6,-1,-1,8,10,-1,-1,-1,-1],"split_conditions":[-3.6028393E-2,3.8597527E1,2.0751761E-2,-1.1747776E-3,3.082723E-2,-2.5404172E-2,4.8362643E-2,-2.851988E-3,-2.1883266E-2,1.802159E-2,-1.6968632E-3],"split_indices":[2,3,1,0,0,1,1,0,0,0,0],"split_type":[0,0,0,0,0,0,0,0,0,0,0],"sum_hessian":[4.1360813E1,1.2518783E1,2.8842031E1,5.1818423E0,7.3369403E0,1.7147877E1,1.1694156E1,7.236408E0,9.9114685E0,5.5403366E0,6.153819E0],"tree_param":{"num_deleted":"0","num_feature":"9","num_nodes":"11","size_leaf_vector":"1"}},{"base_weights":[4.5038726E-2,3.8897764E-2,-9.3181446E-2,-2.922692E-1,2.135713E-1,8.029197E-3,-5.4048383E-1,3.5409756E-2,-2.1830058E-2,-4.296005E-2,3.6485053E-3],"categories":[],"categories_nodes":[],"categories_segments":[],"categories_sizes":[],"default_left":[0,0,0,0,0,0,0,0,0,0,0],"id":57,"left_children":[1,-1,3,5,7,-1,9,-1,-1,-1,-1],"loss_changes":[5.212415E0,0E0,2.634735E0,3.327085E0,5.9282274E0,0E0,4.0772734E0,0E0,0E0,0E0,0E0],"parents":[2147483647,0,0,2,2,3,3,4,4,6,6],"right_children":[2,-1,4,6,8,-1,10,-1,-1,-1,-1],"split_conditions":[1.5226962E1,3.8897764E-2,1.1115084E0,-2.6579028E-2,3.0493498E1,8.029197E-3,2.5722893E-2,3.5409756E-2,-2.1830058E-2,-4.296005E-2,3.6485053E-3],"split_indices":[8,0,6,2,8,0,1,0,0,0,0],"split_type":[0,0,0,0,0,0,0,0,0,0,0],"sum_hessian":[4.464231E1,6.1884637E0,3.8453846E1,2.4364973E1,1.4088875E1,8.163268E0,1.6201704E1,8.336988E0,5.7518864E0,1.067133E1,5.5303745E0],"tree_param":{"num_deleted":"0","num_feature":"9","num_nodes":"11","size_leaf_vector":"1"}},{"base_weights":[-6.1239135E-2,8.544304E-2,-3.4092095E-1,-2.1763563E-2,2.9494548E-1,-3.1833094E-2,-0E0,1.195288E-1,2.6310176E-2,2.2358641E-2,-3.5632744E-3],"categories":[],"categories_nodes":[],"categories_segments":[],"categories_sizes":[],"default_left":[0,0,0,0,0,0,0,0,0,0,0],"id":58,"left_children":[1,3,5,-1,7,-1,-1,9,-1,-1,-1],"loss_changes":[1.8627542E0,3.1579568E0,1.7334431E0,0E0,4.1539943E-1,0E0,0E0,1.247489E0,0E0,0E0,0E0],"parents":[2147483647,0,0,1,1,2,2,4,4,7,7],"right_children":[2,4,6,-1,8,-1,-1,10,-1,-1,-1],"split_conditions":[5.649115E1,3.9322414E1,3.324186E-2,-2.1763563E-2,2.3044764E1,-3.1833094E-2,-0E0,1.5382757E1,2.6310176E-2,2.2358641E-2,-3.5632744E-3],"split_indices":[3,3,7,0,8,0,0,8,0,0,0],"split_type":[0,0,0,0,0,0,0,0,0,0,0],"sum_hessian":[3.887224E1,2.523744E1,1.3634797E1,5.937644E0,1.9299795E1,6.7596717E0,6.8751254E0,1.3929577E1,5.3702183E0,5.1017194E0,8.827858E0],"tree_param":{"num_deleted":"0","num_feature":"9","num_nodes":"11","size_leaf_vector":"1"}},{"base_weights":[-8.241348E-3,2.1118814E-1,-2.9905844E-1,-1.2987151E-2,4.715299E-1,-0E0,-4.356781E-1,-0E0,3.4115363E-2,-0E0,-3.8652208E-2],"categories":[],"categories_nodes":[],"categories_segments":[],"categories_sizes":[],"default_left":[0,0,0,0,0,0,0,0,0,0,0],"id":59,"left_children":[1,3,5,-1,7,-1,9,-1,-1,-1,-1],"loss_changes":[3.076306E0,3.5566413E0,8.1276214E-1,0E0,1.5699205E0,0E0,2.3877115E0,0E0,0E0,0E0,0E0],"parents":[2147483647,0,0,1,1,2,2,4,4,6,6],"right_children":[2,4,6,-1,8,-1,10,-1,-1,-1,-1],"split_conditions":[2.9102243E-2,4.104376E1,5.734103E1,-1.2987151E-2,-1.4188013E-2,-0E0,2.3175636E1,-0E0,3.4115363E-2,-0E0,-3.8652208E-2],"split_indices":[2,3,3,0,0,0,8,0,0,0,0],"split_type":[0,0,0,0,0,0,0,0,0,0,0],"sum_hessian":[4.3539577E1,2.4147758E1,1.939182E1,7.914785E0,1.6232975E1,7.030711E0,1.2361109E1,6.152788E0,1.0080187E1,5.804056E0,6.557052E0],"tree_param":{"num_deleted":"0","num_feature":"9","num_nodes":"11","size_leaf_vector":"1"}},{"base_weights":[-5.9109613E-2,2.798005E-1,-2.648426E-1,-8.06082E-3,3.6342308E-2,-4.064087E-2,-0E0,2.1349085E-2,-3.222752E-1,-3.2958657E-2,1.7117857E-3],"categories":[],"categories_nodes":[],"categories_segments":[],"categories_sizes":[],"default_left":[0,0,0,0,0,0,0,0,0,0,0],"id":60,"left_children":[1,3,5,-1,-1,-1,7,-1,9,-1,-1],"loss_changes":[3.2740724E0,3.8746352E0,4.3951044E0,0E0,0E0,0E0,3.3207297E0,0E0,1.9951252E0,0E0,0E0],"parents":[2147483647,0,0,1,1,2,2,6,6,8,8],"right_children":[2,4,6,-1,-1,-1,8,-1,10,-1,-1],"split_conditions":[8.908261E-1,8.238999E-1,9.9014264E-1,-8.06082E-3,3.6342308E-2,-4.064087E-2,3.2966375E-2,2.1349085E-2,1.3429633E0,-3.2958657E-2,1.7117857E-3],"split_indices":[6,6,6,0,0,0,4,0,6,0,0],"split_type":[0,0,0,0,0,0,0,0,0,0,0],"sum_hessian":[4.2938625E1,1.5029579E1,2.7909044E1,7.646496E0,7.383083E0,7.8278303E0,2.0081215E1,8.447445E0,1.163377E1,5.8295207E0,5.8042493E0],"tree_param":{"num_deleted":"0","num_feature":"9","num_nodes":"11","size_leaf_vector":"1"}},{"base_weights":[7.254798E-3,-1.479572E-1,2.9401457E-1,3.0135026E-2,-3.5144904E-1,1.9677171E-2,-0E0,-6.1819046E-3,1.0475426E-2,-0E0,-3.1367384E-2],"categories":[],"categories_nodes":[],"categories_segments":[],"categories_sizes":[],"default_left":[0,0,0,0,0,0,0,0,0,0,0],"id":61,"left_children":[1,3,5,7,9,-1,-1,-1,-1,-1,-1],"loss_changes":[2.0859869E0,1.206519E0,3.8485825E-1,5.25311E-1,1.2698289E0,0E0,0E0,0E0,0E0,0E0,0E0],"parents":[2147483647,0,0,1,1,2,2,3,3,4,4],"right_children":[2,4,6,8,10,-1,-1,-1,-1,-1,-1],"split_conditions":[1.0620161E0,8.908261E-1,6.804238E-3,-7.5693657E-3,5.2468346E1,1.9677171E-2,-0E0,-6.1819046E-3,1.0475426E-2,-0E0,-3.1367384E-2],"split_indices":[6,6,0,0,3,0,0,0,0,0,0],"split_type":[0,0,0,0,0,0,0,0,0,0,0],"sum_hessian":[4.127156E1,2.6274593E1,1.4996968E1,1.3610052E1,1.2664541E1,9.9718275E0,5.0251403E0,6.161712E0,7.4483404E0,6.8357453E0,5.8287964E0],"tree_param":{"num_deleted":"0","num_feature":"9","num_nodes":"11","size_leaf_vector":"1"}},{"base_weights":[3.3899043E-2,-2.8778786E-2,1.6576749E-1,3.3612054E-2,-0E0,1.567439E-1,-2.6457278E-2,-1.7394025E-2,1.7948333E-2],"categories":[],"categories_nodes":[],"categories_segments":[],"categories_sizes":[],"default_left":[0,0,0,0,0,0,0,0,0],"id":62,"left_children":[1,-1,3,-1,5,7,-1,-1,-1],"loss_changes":[3.343384E0,0E0,3.2137609E0,0E0,2.6701348E0,2.6826603E0,0E0,0E0,0E0],"parents":[2147483647,0,0,2,2,4,4,5,5],"right_children":[2,-1,4,-1,6,8,-1,-1,-1],"split_conditions":[3.793503E1,-2.8778786E-2,-3.280063E-2,3.3612054E-2,4.1230418E-2,6.661007E-3,-2.6457278E-2,-1.7394025E-2,1.7948333E-2],"split_indices":[3,0,2,0,7,2,0,0,0],"split_type":[0,0,0,0,0,0,0,0,0],"sum_hessian":[3.9774845E1,5.2035713E0,3.4571274E1,7.335302E0,2.7235971E1,2.1786821E1,5.4491487E0,5.113518E0,1.6673304E1],"tree_param":{"num_deleted":"0","num_feature":"9","num_nodes":"9","size_leaf_vector":"1"}},{"base_weights":[-2.927859E-2,1.11962266E-1,-3.653672E-1,2.1552151E-2,-1.0320222E-2,-0E0,-3.1393837E-2,-2.6541337E-2,2.0901036E-1,2.5112245E-2,-6.306621E-4],"categories":[],"categories_nodes":[],"categories_segments":[],"categories_sizes":[],"default_left":[0,0,0,0,0,0,0,0,0,0,0],"id":63,"left_children":[1,3,5,-1,7,-1,-1,-1,9,-1,-1],"loss_changes":[2.2144864E0,1.3990612E0,1.2375623E0,0E0,2.9720583E0,0E0,0E0,0E0,1.3438017E0,0E0,0E0],"parents":[2147483647,0,0,1,1,2,2,4,4,8,8],"right_children":[2,4,6,-1,8,-1,-1,-1,10,-1,-1],"split_conditions":[2.6573645E1,3.1995934E-2,-2.2485526E-2,2.1552151E-2,-2.802464E-1,-0E0,-3.1393837E-2,-2.6541337E-2,1.6146323E-1,2.5112245E-2,-6.306621E-4],"split_indices":[8,7,2,0,4,0,0,0,4,0,0],"split_type":[0,0,0,0,0,0,0,0,0,0,0],"sum_hessian":[4.0258114E1,2.8237406E1,1.2020706E1,7.557084E0,2.0680323E1,6.1338444E0,5.8868623E0,5.9646034E0,1.4715718E1,6.215514E0,8.500204E0],"tree_param":{"num_deleted":"0","num_feature":"9","num_nodes":"11","size_leaf_vector":"1"}},{"base_weights":[-4.550987E-2,2.7970387E-2,-1.7463875E-1,-3.2316618E-2,-2.303729E-2,-1.7563428E-1,1.1870592E-2,-1.862127E-2,9.558626E-3],"categories":[],"categories_nodes":[],"categories_segments":[],"categories_sizes":[],"default_left":[0,0,0,0,0,0,0,0,0],"id":64,"left_children":[1,-1,3,5,-1,7,-1,-1,-1],"loss_changes":[3.2429438E0,0E0,1.2053345E0,1.1200987E0,0E0,1.7051997E0,0E0,0E0,0E0],"parents":[2147483647,0,0,2,2,3,3,5,5],"right_children":[2,-1,4,6,-1,8,-1,-1,-1],"split_conditions":[1.51217985E1,2.7970387E-2,6.8830615E-1,4.5731544E-2,-2.303729E-2,5.755819E-2,1.1870592E-2,-1.862127E-2,9.558626E-3],"split_indices":[8,0,5,7,0,2,0,0,0],"split_type":[0,0,0,0,0,0,0,0,0],"sum_hessian":[3.9477955E1,5.091212E0,3.438674E1,2.5617153E1,8.7695875E0,1.839471E1,7.222444E0,1.2839061E1,5.5556493E0],"tree_param":{"num_deleted":"0","num_feature":"9","num_nodes":"9","size_leaf_vector":"1"}},{"base_weights":[2.5864E-2,-1.6108821E-1,3.9159E-1,-2.5715062E-2,1.9944359E-2,-0E0,2.9441386E-2,1.4881028E-1,-9.681583E-3,2.560449E-2,-1.3259514E-2],"categories":[],"categories_nodes":[],"categories_segments":[],"categories_sizes":[],"default_left":[0,0,0,0,0,0,0,0,0,0,0],"id":65,"left_children":[1,3,5,-1,7,-1,-1,9,-1,-1,-1],"loss_changes":[3.2426186E0,2.1577747E0,1.3709989E0,0E0,6.003151E-1,0E0,0E0,2.7106586E0,0E0,0E0,0E0],"parents":[2147483647,0,0,1,1,2,2,4,4,7,7],"right_children":[2,4,6,-1,8,-1,-1,10,-1,-1,-1],"split_conditions":[1.0620161E0,-2.1052584E-2,4.0689938E1,-2.5715062E-2,1.4497759E-2,-0E0,2.9441386E-2,8.8761824E-1,-9.681583E-3,2.560449E-2,-1.3259514E-2],"split_indices":[6,1,3,0,0,0,0,6,0,0,0],"split_type":[0,0,0,0,0,0,0,0,0,0,0],"sum_hessian":[4.1894432E1,2.7558817E1,1.4335613E1,9.026759E0,1.8532059E1,5.1566563E0,9.178957E0,1.3396533E1,5.1355257E0,7.5262365E0,5.870296E0],"tree_param":{"num_deleted":"0","num_feature":"9","num_nodes":"11","size_leaf_vector":"1"}},{"base_weights":[6.414992E-2,4.2016736E-1,-1.5223996E-1,-4.6300862E-4,3.155042E-2,7.6050974E-2,-3.3558646E-1,2.2765862E-2,-1.2332664E-2,-0E0,-2.2478776E-2],"categories":[],"categories_nodes":[],"categories_segments":[],"categories_sizes":[],"default_left":[0,0,0,0,0,0,0,0,0,0,0],"id":66,"left_children":[1,3,5,-1,-1,7,9,-1,-1,-1,-1],"loss_changes":[3.57217E0,1.9205375E0,1.324319E0,0E0,0E0,1.8691452E0,4.7602808E-1,0E0,0E0,0E0,0E0],"parents":[2147483647,0,0,1,1,2,2,5,5,6,6],"right_children":[2,4,6,-1,-1,8,10,-1,-1,-1,-1],"split_conditions":[-2.1984998E-2,-6.2938064E-1,8.9082015E-1,-4.6300862E-4,3.155042E-2,2.2738878E1,1.6484278E1,2.2765862E-2,-1.2332664E-2,-0E0,-2.2478776E-2],"split_indices":[2,4,6,0,0,8,8,0,0,0,0],"split_type":[0,0,0,0,0,0,0,0,0,0,0],"sum_hessian":[4.0969048E1,1.5649227E1,2.5319818E1,5.0020576E0,1.064717E1,1.0584293E1,1.4735525E1,5.2001767E0,5.384117E0,5.0554543E0,9.680072E0],"tree_param":{"num_deleted":"0","num_feature":"9","num_nodes":"11","size_leaf_vector":"1"}},{"base_weights":[-5.3373925E-2,-1.6183719E-1,1.073643E-2,-3.150831E-1,1.3789596E-2,-0E0,-3.460933E-2,1.279809E-2,-1.846972E-2],"categories":[],"categories_nodes":[],"categories_segments":[],"categories_sizes":[],"default_left":[0,0,0,0,0,0,0,0,0],"id":67,"left_children":[1,3,-1,5,-1,7,-1,-1,-1],"loss_changes":[1.3193086E0,2.454571E0,0E0,3.2191377E0,0E0,1.7415135E0,0E0,0E0,0E0],"parents":[2147483647,0,0,1,1,3,3,5,5],"right_children":[2,4,-1,6,-1,8,-1,-1,-1],"split_conditions":[4.473474E-2,1.0403966E0,1.073643E-2,8.9082015E-1,1.3789596E-2,6.2280055E-2,-3.460933E-2,1.279809E-2,-1.846972E-2],"split_indices":[7,6,0,6,0,2,0,0,0],"split_type":[0,0,0,0,0,0,0,0,0],"sum_hessian":[4.1888718E1,3.1715578E1,1.0173141E1,2.4751009E1,6.9645696E0,1.4489193E1,1.0261815E1,9.015285E0,5.473909E0],"tree_param":{"num_deleted":"0","num_feature":"9","num_nodes":"9","size_leaf_vector":"1"}},{"base_weights":[1.6454795E-2,3.0579644E-1,-2.787611E-1,2.9123934E-2,4.6098925E-2,-0E0,-3.0865898E-2,1.8562768E-1,-1.1269457E-2,-2.5519624E-2,2.5861284E-2,1.8064937E-2,-0E0],"categories":[],"categories_nodes":[],"categories_segments":[],"categories_sizes":[],"default_left":[0,0,0,0,0,0,0,0,0,0,0,0,0],"id":68,"left_children":[1,3,5,7,-1,9,-1,11,-1,-1,-1,-1,-1],"loss_changes":[4.0729513E0,3.6990047E0,2.0696187E0,8.5015386E-1,0E0,4.397518E0,0E0,6.5197474E-1,0E0,0E0,0E0,0E0,0E0],"parents":[2147483647,0,0,1,1,2,2,3,3,5,5,7,7],"right_children":[2,4,6,8,-1,10,-1,12,-1,-1,-1,-1,-1],"split_conditions":[2.1530817E1,7.414453E-2,6.2280055E-2,8.0841124E-2,4.6098925E-2,3.3984053E-1,-3.0865898E-2,2.995303E-4,-1.1269457E-2,-2.5519624E-2,2.5861284E-2,1.8064937E-2,-0E0],"split_indices":[8,2,2,4,0,5,0,0,0,0,0,0,0],"split_type":[0,0,0,0,0,0,0,0,0,0,0,0,0],"sum_hessian":[4.352827E1,2.280199E1,2.072628E1,1.7741735E1,5.0602555E0,1.2661171E1,8.065108E0,1.2537867E1,5.2038684E0,6.504536E0,6.1566353E0,6.832111E0,5.705756E0],"tree_param":{"num_deleted":"0","num_feature":"9","num_nodes":"13","size_leaf_vector":"1"}},{"base_weights":[-0E0,-1.660424E-2,1.0211556E-1,2.4483109E-1,-1.8566305E-2,-1.0219026E-2,3.984032E-1,-0E0,2.5071457E-2],"categories":[],"categories_nodes":[],"categories_segments":[],"categories_sizes":[],"default_left":[0,0,0,0,0,0,0,0,0],"id":69,"left_children":[1,-1,3,5,-1,-1,7,-1,-1],"loss_changes":[1.512412E0,0E0,2.2592764E0,2.0784016E0,0E0,0E0,6.6626596E-1,0E0,0E0],"parents":[2147483647,0,0,2,2,3,3,6,6],"right_children":[2,-1,4,6,-1,-1,8,-1,-1],"split_conditions":[4.104376E1,-1.660424E-2,2.9655913E-2,8.238999E-1,-1.8566305E-2,-1.0219026E-2,-1.8995896E-2,-0E0,2.5071457E-2],"split_indices":[3,0,0,6,0,0,1,0,0],"split_type":[0,0,0,0,0,0,0,0,0],"sum_hessian":[3.840091E1,8.718514E0,2.9682394E1,2.4360834E1,5.3215604E0,5.2083817E0,1.9152452E1,5.1493E0,1.4003152E1],"tree_param":{"num_deleted":"0","num_feature":"9","num_nodes":"9","size_leaf_vector":"1"}},{"base_weights":[-5.057693E-2,1.9229628E-1,-2.229417E-1,-7.7605183E-4,2.4335818E-2,-6.720309E-2,-2.9438827E-2,-2.1829452E-1,1.0399261E-2,-2.6072836E-2,1.1540344E-2],"categories":[],"categories_nodes":[],"categories_segments":[],"categories_sizes":[],"default_left":[0,0,0,0,0,0,0,0,0,0,0],"id":70,"left_children":[1,3,5,-1,-1,7,-1,9,-1,-1,-1],"loss_changes":[1.9670529E0,1.3748236E0,1.1996541E0,0E0,0E0,1.052148E0,0E0,2.699882E0,0E0,0E0,0E0],"parents":[2147483647,0,0,1,1,2,2,5,5,7,7],"right_children":[2,4,6,-1,-1,8,-1,10,-1,-1,-1],"split_conditions":[-2.1984998E-2,3.3984053E-1,2.4401734E-2,-7.7605183E-4,2.4335818E-2,6.6641294E-3,-2.9438827E-2,1.0403966E0,1.0399261E-2,-2.6072836E-2,1.1540344E-2],"split_indices":[2,5,0,0,0,0,0,6,0,0,0],"split_type":[0,0,0,0,0,0,0,0,0,0,0],"sum_hessian":[4.257392E1,1.6372253E1,2.620167E1,9.712774E0,6.659479E0,2.0997156E1,5.2045126E0,1.4994754E1,6.002403E0,9.424162E0,5.5705914E0],"tree_param":{"num_deleted":"0","num_feature":"9","num_nodes":"11","size_leaf_vector":"1"}},{"base_weights":[-1.2337023E-1,-2.4751768E-2,-5.1787985E-3,3.5434768E-1,-2.4502471E-1,3.1920012E-2,-0E0,-2.013748E-2,-4.840517E-2,1.6548876E-2,-2.2217833E-2],"categories":[],"categories_nodes":[],"categories_segments":[],"categories_sizes":[],"default_left":[0,0,0,0,0,0,0,0,0,0,0],"id":71,"left_children":[1,-1,3,5,7,-1,-1,-1,9,-1,-1],"loss_changes":[1.5837493E0,0E0,3.1202514E0,1.1593149E0,4.4541466E-1,0E0,0E0,0E0,2.4350605E0,0E0,0E0],"parents":[2147483647,0,0,2,2,3,3,4,4,8,8],"right_children":[2,-1,4,6,8,-1,-1,-1,10,-1,-1],"split_conditions":[-5.420426E-1,-2.4751768E-2,-1.0080526E-1,4.875328E1,6.519429E-1,3.1920012E-2,-0E0,-2.013748E-2,9.531224E-1,1.6548876E-2,-2.2217833E-2],"split_indices":[4,0,4,3,5,0,0,0,6,0,0],"split_type":[0,0,0,0,0,0,0,0,0,0,0],"sum_hessian":[3.986394E1,7.0589814E0,3.2804962E1,1.1911013E1,2.0893948E1,5.1303606E0,6.780652E0,9.019187E0,1.1874761E1,5.586981E0,6.28778E0],"tree_param":{"num_deleted":"0","num_feature":"9","num_nodes":"11","size_leaf_vector":"1"}},{"base_weights":[-2.9255161E-2,2.8342849E-2,-1.499344E-1,-3.2223707E-1,1.2057004E-2,-1.0008205E-1,-3.3835236E-2,7.337644E-3,-1.1537596E-2],"categories":[],"categories_nodes":[],"categories_segments":[],"categories_sizes":[],"default_left":[0,0,0,0,0,0,0,0,0],"id":72,"left_children":[1,-1,3,5,-1,7,-1,-1,-1],"loss_changes":[3.0969095E0,0E0,2.7919414E0,1.719382E0,0E0,7.7821517E-1,0E0,0E0,0E0],"parents":[2147483647,0,0,2,2,3,3,5,5],"right_children":[2,-1,4,6,-1,8,-1,-1,-1],"split_conditions":[1.5253715E1,2.8342849E-2,1.1884319E0,6.880266E-1,1.2057004E-2,8.2360643E-1,-3.3835236E-2,7.337644E-3,-1.1537596E-2],"split_indices":[8,0,6,5,0,6,0,0,0],"split_type":[0,0,0,0,0,0,0,0,0],"sum_hessian":[4.1584373E1,5.0586753E0,3.65257E1,2.6486595E1,1.0039103E1,1.8725834E1,7.7607617E0,5.072084E0,1.3653749E1],"tree_param":{"num_deleted":"0","num_feature":"9","num_nodes":"9","size_leaf_vector":"1"}},{"base_weights":[1.8513946E-2,1.9291453E-1,-2.2113642E-2,4.014254E-1,-4.2597946E-2,3.0089978E-3,2.6414722E-2,-2.3156172E-2,1.124596E-2],"categories":[],"categories_nodes":[],"categories_segments":[],"categories_sizes":[],"default_left":[0,0,0,0,0,0,0,0,0],"id":73,"left_children":[1,3,-1,5,7,-1,-1,-1,-1],"loss_changes":[3.4021904E0,1.808453E0,0E0,4.450059E-1,2.1198623E0,0E0,0E0,0E0,0E0],"parents":[2147483647,0,0,1,1,3,3,4,4],"right_children":[2,4,-1,6,8,-1,-1,-1,-1],"split_conditions":[2.8450066E1,3.6241047E-2,-2.2113642E-2,-3.6140418E-1,3.866128E-2,3.0089978E-3,2.6414722E-2,-2.3156172E-2,1.124596E-2],"split_indices":[8,7,0,4,7,0,0,0,0],"split_type":[0,0,0,0,0,0,0,0,0],"sum_hessian":[3.9764133E1,3.0476885E1,9.28725E0,1.6543861E1,1.39330225E1,6.351014E0,1.0192847E1,5.575396E0,8.357627E0],"tree_param":{"num_deleted":"0","num_feature":"9","num_nodes":"9","size_leaf_vector":"1"}},{"base_weights":[3.0857198E-2,2.537016E-1,-7.9624765E-2,-5.8128918E-3,2.7492061E-2,-1.7562566E-2,5.5710956E-2,1.5735297E-2,-1.0833111E-2],"categories":[],"categories_nodes":[],"categories_segments":[],"categories_sizes":[],"default_left":[0,0,0,0,0,0,0,0,0],"id":74,"left_children":[1,3,5,-1,-1,-1,7,-1,-1],"loss_changes":[1.1987243E0,2.1414216E0,1.2570944E0,0E0,0E0,0E0,1.5912136E0,0E0,0E0],"parents":[2147483647,0,0,1,1,2,2,6,6],"right_children":[2,4,6,-1,-1,-1,8,-1,-1],"split_conditions":[-2.6099043E-2,3.9322414E1,5.3680317E1,-5.8128918E-3,2.7492061E-2,-1.7562566E-2,1.0098529E0,1.5735297E-2,-1.0833111E-2],"split_indices":[2,3,3,0,0,0,6,0,0],"split_type":[0,0,0,0,0,0,0,0,0],"sum_hessian":[4.151224E1,1.4400046E1,2.7112196E1,6.191554E0,8.208492E0,9.183695E0,1.7928501E1,9.971575E0,7.956927E0],"tree_param":{"num_deleted":"0","num_feature":"9","num_nodes":"9","size_leaf_vector":"1"}},{"base_weights":[-5.6921728E-2,1.9008389E-2,-1.4394517E-1,2.1089153E-2,-2.6859784E-1,-2.8365487E-2,-6.2640205E-2,1.972876E-2,-1.2837173E-2],"categories":[],"categories_nodes":[],"categories_segments":[],"categories_sizes":[],"default_left":[0,0,0,0,0,0,0,0,0],"id":75,"left_children":[1,-1,3,-1,5,-1,7,-1,-1],"loss_changes":[1.7148923E0,0E0,2.9844227E0,0E0,1.7599947E0,0E0,2.2534883E0,0E0,0E0],"parents":[2147483647,0,0,2,2,4,4,6,6],"right_children":[2,-1,4,-1,6,-1,8,-1,-1],"split_conditions":[2.2468023E-1,1.9008389E-2,1.5382757E1,2.1089153E-2,4.4031686E-1,-2.8365487E-2,5.4537284E-1,1.972876E-2,-1.2837173E-2],"split_indices":[5,0,8,0,5,0,5,0,0],"split_type":[0,0,0,0,0,0,0,0,0],"sum_hessian":[4.33126E1,5.1189785E0,3.8193623E1,5.3110914E0,3.288253E1,1.0996709E1,2.1885822E1,5.1390595E0,1.6746761E1],"tree_param":{"num_deleted":"0","num_feature":"9","num_nodes":"9","size_leaf_vector":"1"}},{"base_weights":[-1.4373469E-2,1.3585539E-1,-2.489095E-2,3.5043406E-1,-1.889231E-2,2.450995E-2,2.2002994E-3],"categories":[],"categories_nodes":[],"categories_segments":[],"categories_sizes":[],"default_left":[0,0,0,0,0,0,0],"id":76,"left_children":[1,3,-1,5,-1,-1,-1],"loss_changes":[3.495899E0,4.019112E0,0E0,7.962458E-1,0E0,0E0,0E0],"parents":[2147483647,0,0,1,1,3,3],"right_children":[2,4,-1,6,-1,-1,-1],"split_conditions":[2.8450066E1,1.9519016E-2,-2.489095E-2,3.5997987E-2,-1.889231E-2,2.450995E-2,2.2002994E-3],"split_indices":[8,0,0,7,0,0,0],"split_type":[0,0,0,0,0,0,0],"sum_hessian":[4.1780327E1,3.2183235E1,9.597091E0,2.3835762E1,8.347475E0,1.44251585E1,9.410604E0],"tree_param":{"num_deleted":"0","num_feature":"9","num_nodes":"7","size_leaf_vector":"1"}},{"base_weights":[-0E0,3.3144933E-1,-2.6304853E-1,3.4834884E-2,4.4469375E-2,-2.5463013E-2,-3.8422555E-2,1.5926508E-2,-7.0554237E-3,9.807575E-3,-1.8705482E-2],"categories":[],"categories_nodes":[],"categories_segments":[],"categories_sizes":[],"default_left":[0,0,0,0,0,0,0,0,0,0,0],"id":77,"left_children":[1,3,5,-1,7,-1,9,-1,-1,-1,-1],"loss_changes":[3.6617842E0,1.4976525E0,9.9686253E-1,0E0,8.507232E-1,0E0,1.4649192E0,0E0,0E0,0E0,0E0],"parents":[2147483647,0,0,1,1,2,2,4,4,6,6],"right_children":[2,4,6,-1,8,-1,10,-1,-1,-1,-1],"split_conditions":[2.0615927E1,8.9082015E-1,8.6754715E-1,3.4834884E-2,5.2535854E1,-2.5463013E-2,2.8994904E1,1.5926508E-2,-7.0554237E-3,9.807575E-3,-1.8705482E-2],"split_indices":[8,6,6,0,3,0,8,0,0,0,0],"split_type":[0,0,0,0,0,0,0,0,0,0,0],"sum_hessian":[3.8098274E1,1.6414604E1,2.168367E1,5.1994476E0,1.1215157E1,8.073796E0,1.3609874E1,5.0373917E0,6.1777644E0,7.6241035E0,5.98577E0],"tree_param":{"num_deleted":"0","num_feature":"9","num_nodes":"11","size_leaf_vector":"1"}},{"base_weights":[-0E0,1.4233966E-1,-2.7180058E-1,-7.0916167E-3,3.251323E-1,-2.3934124E-2,-0E0,-0E0,2.7783928E-2],"categories":[],"categories_nodes":[],"categories_segments":[],"categories_sizes":[],"default_left":[0,0,0,0,0,0,0,0,0],"id":78,"left_children":[1,3,5,-1,7,-1,-1,-1,-1],"loss_changes":[1.5400972E0,1.6376125E0,8.5875696E-1,0E0,1.5935305E0,0E0,0E0,0E0,0E0],"parents":[2147483647,0,0,1,1,2,2,4,4],"right_children":[2,4,6,-1,8,-1,-1,-1,-1],"split_conditions":[5.734103E1,4.421846E1,6.3457767E1,-7.0916167E-3,9.300537E-1,-2.3934124E-2,-0E0,-0E0,2.7783928E-2],"split_indices":[3,3,3,0,6,0,0,0,0],"split_type":[0,0,0,0,0,0,0,0,0],"sum_hessian":[3.7158134E1,2.5986265E1,1.1171871E1,9.276974E0,1.6709291E1,5.994506E0,5.1773653E0,7.143373E0,9.565918E0],"tree_param":{"num_deleted":"0","num_feature":"9","num_nodes":"9","size_leaf_vector":"1"}},{"base_weights":[-0E0,-1.2944876E-1,1.7873254E-2,1.771756E-2,-2.862738E-1,-0E0,-4.675003E-1,-2.9014884E-2,-5.2855634E-3],"categories":[],"categories_nodes":[],"categories_segments":[],"categories_sizes":[],"default_left":[0,0,0,0,0,0,0,0,0],"id":79,"left_children":[1,3,-1,-1,5,-1,7,-1,-1],"loss_changes":[2.007905E0,2.6127844E0,0E0,0E0,1.4431922E0,0E0,2.0489335E-1,0E0,0E0],"parents":[2147483647,0,0,1,1,4,4,6,6],"right_children":[2,4,-1,-1,6,-1,8,-1,-1],"split_conditions":[4.473474E-2,1.5691163E1,1.7873254E-2,1.771756E-2,3.184692E-2,-0E0,3.740777E-2,-2.9014884E-2,-5.2855634E-3],"split_indices":[7,8,0,0,7,0,7,0,0],"split_type":[0,0,0,0,0,0,0,0,0],"sum_hessian":[3.9700848E1,3.021137E1,9.489475E0,5.998591E0,2.421278E1,9.780417E0,1.4432363E1,9.027763E0,5.404599E0],"tree_param":{"num_deleted":"0","num_feature":"9","num_nodes":"9","size_leaf_vector":"1"}},{"base_weights":[9.642929E-4,1.1608231E-1,-1.6410014E-2,-5.78738E-3,1.9635531E-1,2.8273678E-1,-0E0,2.42758E-2,5.1663294E-3],"categories":[],"categories_nodes":[],"categories_segments":[],"categories_sizes":[],"default_left":[0,0,0,0,0,0,0,0,0],"id":80,"left_children":[1,3,-1,-1,5,7,-1,-1,-1],"loss_changes":[1.538969E0,7.050352E-1,0E0,0E0,4.7738266E-1,2.9734528E-1,0E0,0E0,0E0],"parents":[2147483647,0,0,1,1,4,4,5,5],"right_children":[2,4,-1,-1,6,8,-1,-1,-1],"split_conditions":[2.9089672E1,-2.0491118E-2,-1.6410014E-2,-5.78738E-3,5.857307E1,3.1480074E-2,-0E0,2.42758E-2,5.1663294E-3],"split_indices":[8,0,0,0,3,7,0,0,0],"split_type":[0,0,0,0,0,0,0,0,0],"sum_hessian":[3.9401867E1,3.1277082E1,8.124784E0,6.2151175E0,2.5061966E1,1.7023846E1,8.03812E0,5.0813546E0,1.1942491E1],"tree_param":{"num_deleted":"0","num_feature":"9","num_nodes":"9","size_leaf_vector":"1"}},{"base_weights":[-3.965386E-3,1.5186238E-1,-2.36876E-2,-0E0,2.8379875E-1,-1.5668644E-2,2.5652042E-2,2.1315675E-2,-0E0],"categories":[],"categories_nodes":[],"categories_segments":[],"categories_sizes":[],"default_left":[0,0,0,0,0,0,0,0,0],"id":81,"left_children":[1,3,-1,5,7,-1,-1,-1,-1],"loss_changes":[3.3586385E0,6.5008104E-1,0E0,3.0159383E0,7.341006E-1,0E0,0E0,0E0,0E0],"parents":[2147483647,0,0,1,1,3,3,4,4],"right_children":[2,4,-1,6,8,-1,-1,-1,-1],"split_conditions":[2.7615164E1,8.189285E-4,-2.36876E-2,9.1953504E-1,1.0208215E0,-1.5668644E-2,2.5652042E-2,2.1315675E-2,-0E0],"split_indices":[8,1,0,6,6,0,0,0,0],"split_type":[0,0,0,0,0,0,0,0,0],"sum_hessian":[3.9715324E1,3.0040192E1,9.675133E0,1.4794502E1,1.5245689E1,9.702313E0,5.0921884E0,9.681859E0,5.5638304E0],"tree_param":{"num_deleted":"0","num_feature":"9","num_nodes":"9","size_leaf_vector":"1"}},{"base_weights":[6.339211E-2,-8.0685854E-2,2.257824E-1,-2.8467534E-2,1.0786379E-1,5.404639E-1,-9.165825E-3,1.7446032E-2,-3.0217E-3,5.477955E-3,3.593425E-2],"categories":[],"categories_nodes":[],"categories_segments":[],"categories_sizes":[],"default_left":[0,0,0,0,0,0,0,0,0,0,0],"id":82,"left_children":[1,3,5,-1,7,9,-1,-1,-1,-1,-1],"loss_changes":[1.0679506E0,2.340055E0,3.1351502E0,0E0,8.5582745E-1,4.5044065E-1,0E0,0E0,0E0,0E0,0E0],"parents":[2147483647,0,0,1,1,2,2,4,4,5,5],"right_children":[2,4,6,-1,8,10,-1,-1,-1,-1,-1],"split_conditions":[9.64546E-1,3.3372727E-1,6.083215E-1,-2.8467534E-2,1.5434209E-2,-1.2992555E-1,-9.165825E-3,1.7446032E-2,-3.0217E-3,5.477955E-3,3.593425E-2],"split_indices":[6,5,5,0,2,2,0,0,0,0,0],"split_type":[0,0,0,0,0,0,0,0,0,0,0],"sum_hessian":[3.8987015E1,1.9560007E1,1.9427008E1,5.059594E0,1.4500414E1,1.1308453E1,8.118554E0,6.3005075E0,8.199906E0,5.074426E0,6.234027E0],"tree_param":{"num_deleted":"0","num_feature":"9","num_nodes":"11","size_leaf_vector":"1"}},{"base_weights":[-0E0,1.02697976E-1,-1.6170425E-2,1.7198345E-2,-1.1892469E-2,-1.3946793E-2,1.7970373E-1,-0E0,1.8481715E-2],"categories":[],"categories_nodes":[],"categories_segments":[],"categories_sizes":[],"default_left":[0,0,0,0,0,0,0,0,0],"id":83,"left_children":[1,3,-1,-1,5,-1,7,-1,-1],"loss_changes":[1.4373784E0,1.1186647E0,0E0,0E0,1.3618908E0,0E0,5.7834756E-1,0E0,0E0],"parents":[2147483647,0,0,1,1,4,4,6,6],"right_children":[2,4,-1,-1,6,-1,8,-1,-1],"split_conditions":[1.8805841E-2,-5.0576467E-2,-1.6170425E-2,1.7198345E-2,3.324186E-2,-1.3946793E-2,5.018681E-2,-0E0,1.8481715E-2],"split_indices":[0,2,0,0,7,0,2,0,0],"split_type":[0,0,0,0,0,0,0,0,0],"sum_hessian":[4.0458668E1,3.2160767E1,8.297903E0,1.0472013E1,2.1688753E1,9.76977E0,1.19189825E1,6.3961606E0,5.5228224E0],"tree_param":{"num_deleted":"0","num_feature":"9","num_nodes":"9","size_leaf_vector":"1"}},{"base_weights":[-0E0,-2.4572484E-1,2.2274928E-1,-4.922095E-1,4.3007163E-3,6.043209E-1,-1.1359858E-2,-0E0,-4.0426064E-2,3.8856182E-2,8.451684E-3],"categories":[],"categories_nodes":[],"categories_segments":[],"categories_sizes":[],"default_left":[0,0,0,0,0,0,0,0,0,0,0],"id":84,"left_children":[1,3,5,7,-1,9,-1,-1,-1,-1,-1],"loss_changes":[2.3873038E0,2.0215464E0,4.293721E0,2.117777E0,0E0,2.5865078E-1,0E0,0E0,0E0,0E0,0E0],"parents":[2147483647,0,0,1,1,2,2,3,3,5,5],"right_children":[2,4,6,8,-1,10,-1,-1,-1,-1,-1],"split_conditions":[9.428807E-1,5.740031E-1,1.1215371E-1,3.1163264E-2,4.3007163E-3,2.7460411E1,-1.1359858E-2,-0E0,-4.0426064E-2,3.8856182E-2,8.451684E-3],"split_indices":[6,5,4,7,0,8,0,0,0,0,0],"split_type":[0,0,0,0,0,0,0,0,0,0,0],"sum_hessian":[3.9514744E1,1.9203424E1,2.0311321E1,1.132708E1,7.8763447E0,1.1220751E1,9.0905695E0,5.148287E0,6.1787934E0,6.0855746E0,5.1351767E0],"tree_param":{"num_deleted":"0","num_feature":"9","num_nodes":"11","size_leaf_vector":"1"}},{"base_weights":[-2.4210831E-2,7.252304E-2,-2.1784572E-2,-1.304577E-1,3.914992E-1,-2.4929494E-2,6.387639E-2,-0E0,3.395554E-2,1.5297576E-2,-9.331124E-3],"categories":[],"categories_nodes":[],"categories_segments":[],"categories_sizes":[],"default_left":[0,0,0,0,0,0,0,0,0,0,0],"id":85,"left_children":[1,3,-1,5,7,-1,9,-1,-1,-1,-1],"loss_changes":[1.7660503E0,2.283504E0,0E0,1.7046638E0,1.6304379E0,0E0,1.0172323E0,0E0,0E0,0E0,0E0],"parents":[2147483647,0,0,1,1,3,3,4,4,6,6],"right_children":[2,4,-1,6,8,-1,10,-1,-1,-1,-1],"split_conditions":[2.9089672E1,3.7029784E-2,-2.1784572E-2,-9.424591E-3,1.7551132E1,-2.4929494E-2,9.48019E-3,-0E0,3.395554E-2,1.5297576E-2,-9.331124E-3],"split_indices":[8,7,0,0,8,0,0,0,0,0,0],"split_type":[0,0,0,0,0,0,0,0,0,0,0],"sum_hessian":[3.6218933E1,2.9675077E1,6.543857E0,1.789933E1,1.1775747E1,5.991361E0,1.1907969E1,5.6622653E0,6.113482E0,6.845728E0,5.0622416E0],"tree_param":{"num_deleted":"0","num_feature":"9","num_nodes":"11","size_leaf_vector":"1"}},{"base_weights":[-0E0,-1.8799977E-2,6.2487263E-2,2.6978958E-2,-2.6868472E-2,-1.4323291E-1,1.6525246E-2,-2.0734452E-2,-0E0],"categories":[],"categories_nodes":[],"categories_segments":[],"categories_sizes":[],"default_left":[0,0,0,0,0,0,0,0,0],"id":86,"left_children":[1,-1,3,-1,5,7,-1,-1,-1],"loss_changes":[1.1492656E0,0E0,1.9689195E0,0E0,1.4267807E0,1.0507883E0,0E0,0E0,0E0],"parents":[2147483647,0,0,2,2,4,4,5,5],"right_children":[2,-1,4,-1,6,8,-1,-1,-1],"split_conditions":[7.997124E-1,-1.8799977E-2,1.5114352E1,2.6978958E-2,5.0150387E-2,4.421846E1,1.6525246E-2,-2.0734452E-2,-0E0],"split_indices":[6,0,8,0,7,3,0,0,0],"split_type":[0,0,0,0,0,0,0,0,0],"sum_hessian":[4.253019E1,5.0384383E0,3.7491753E1,5.2072887E0,3.2284462E1,2.6313898E1,5.9705644E0,7.4882545E0,1.8825644E1],"tree_param":{"num_deleted":"0","num_feature":"9","num_nodes":"9","size_leaf_vector":"1"}},{"base_weights":[-5.0072405E-3,-1.7231213E-1,2.5860405E-1,2.3105728E-2,-4.084978E-1,1.734311E-2,-0E0,-8.347915E-3,1.33767715E-2,-0E0,-3.4704324E-2],"categories":[],"categories_nodes":[],"categories_segments":[],"categories_sizes":[],"default_left":[0,0,0,0,0,0,0,0,0,0,0],"id":87,"left_children":[1,3,5,7,9,-1,-1,-1,-1,-1,-1],"loss_changes":[1.8421748E0,1.4704542E0,2.0641911E-1,8.6715263E-1,1.4630332E0,0E0,0E0,0E0,0E0,0E0,0E0],"parents":[2147483647,0,0,1,1,2,2,3,3,4,4],"right_children":[2,4,6,8,10,-1,-1,-1,-1,-1,-1],"split_conditions":[1.0620161E0,8.818343E-1,5.5410314E-1,-2.8666136E-1,-3.8511693E-2,1.734311E-2,-0E0,-8.347915E-3,1.33767715E-2,-0E0,-3.4704324E-2],"split_indices":[6,6,5,4,4,0,0,0,0,0,0],"split_type":[0,0,0,0,0,0,0,0,0,0,0],"sum_hessian":[3.8726955E1,2.5275127E1,1.3451828E1,1.3660182E1,1.1614944E1,8.30456E0,5.1472683E0,6.890541E0,6.769641E0,5.8621287E0,5.7528157E0],"tree_param":{"num_deleted":"0","num_feature":"9","num_nodes":"11","size_leaf_vector":"1"}},{"base_weights":[-1.794434E-2,1.22199915E-1,-1.8978387E-1,1.724879E-2,-6.341338E-2,-3.3515457E-2,4.943996E-2,4.758295E-3,-1.4033169E-2,1.0427333E-2,-3.5347526E-3],"categories":[],"categories_nodes":[],"categories_segments":[],"categories_sizes":[],"default_left":[0,0,0,0,0,0,0,0,0,0,0],"id":88,"left_children":[1,3,5,-1,7,-1,9,-1,-1,-1,-1],"loss_changes":[1.0688227E0,1.1035709E0,2.770855E0,0E0,5.7988405E-1,0E0,3.8651627E-1,0E0,0E0,0E0,0E0],"parents":[2147483647,0,0,1,1,2,2,4,4,6,6],"right_children":[2,4,6,-1,8,-1,10,-1,-1,-1,-1],"split_conditions":[-1.550185E-3,3.6241047E-2,3.3008408E-2,1.724879E-2,-4.288314E-2,-3.3515457E-2,3.966139E-2,4.758295E-3,-1.4033169E-2,1.0427333E-2,-3.5347526E-3],"split_indices":[0,7,7,0,2,0,7,0,0,0,0],"split_type":[0,0,0,0,0,0,0,0,0,0,0],"sum_hessian":[3.9052834E1,2.0225729E1,1.8827103E1,9.636493E0,1.0589237E1,5.7543955E0,1.3072707E1,5.4404483E0,5.1487885E0,6.7814603E0,6.2912474E0],"tree_param":{"num_deleted":"0","num_feature":"9","num_nodes":"11","size_leaf_vector":"1"}},{"base_weights":[-3.8676534E-2,1.4000647E-1,-1.5097195E-1,3.4630902E-2,-1.1683565E-2,-0E0,-2.9103596E-2,-3.4731212E-1,2.5750507E-2,-9.117219E-4,-2.5764436E-2],"categories":[],"categories_nodes":[],"categories_segments":[],"categories_sizes":[],"default_left":[0,0,0,0,0,0,0,0,0,0,0],"id":89,"left_children":[1,3,5,-1,-1,7,-1,9,-1,-1,-1],"loss_changes":[9.0026283E-1,3.7984815E0,1.8406277E0,0E0,0E0,4.5345483E0,0E0,5.5658793E-1,0E0,0E0,0E0],"parents":[2147483647,0,0,1,1,2,2,5,5,7,7],"right_children":[2,4,6,-1,-1,8,-1,10,-1,-1,-1],"split_conditions":[8.908261E-1,2.0268368E1,3.0493498E1,3.4630902E-2,-1.1683565E-2,1.0620161E0,-2.9103596E-2,5.627728E-1,2.5750507E-2,-9.117219E-4,-2.5764436E-2],"split_indices":[6,8,8,0,0,6,0,5,0,0,0],"split_type":[0,0,0,0,0,0,0,0,0,0,0],"sum_hessian":[4.0486618E1,1.3715928E1,2.6770689E1,5.3843403E0,8.331588E0,2.1402544E1,5.3681445E0,1.3234843E1,8.167701E0,6.227823E0,7.007021E0],"tree_param":{"num_deleted":"0","num_feature":"9","num_nodes":"11","size_leaf_vector":"1"}},{"base_weights":[-9.4596416E-2,1.991698E-2,-2.0713122E-1,-4.427299E-1,1.6019715E-2,4.087975E-4,-2.9586723E-2],"categories":[],"categories_nodes":[],"categories_segments":[],"categories_sizes":[],"default_left":[0,0,0,0,0,0,0],"id":90,"left_children":[1,-1,3,5,-1,-1,-1],"loss_changes":[2.2497387E0,0E0,4.58805E0,1.9875507E0,0E0,0E0,0E0],"parents":[2147483647,0,0,2,2,3,3],"right_children":[2,-1,4,6,-1,-1,-1],"split_conditions":[1.5086154E1,1.991698E-2,1.1913197E0,3.0632792E-2,1.6019715E-2,4.087975E-4,-2.9586723E-2],"split_indices":[8,0,6,7,0,0,0],"split_type":[0,0,0,0,0,0,0],"sum_hessian":[3.7304653E1,5.163688E0,3.2140965E1,2.3095547E1,9.045418E0,5.3724675E0,1.772308E1],"tree_param":{"num_deleted":"0","num_feature":"9","num_nodes":"7","size_leaf_vector":"1"}},{"base_weights":[6.268598E-2,2.3112617E-1,-1.9189103E-2,2.6846105E-2,4.582817E-2,-1.5190609E-2,1.2179196E-2],"categories":[],"categories_nodes":[],"categories_segments":[],"categories_sizes":[],"default_left":[0,0,0,0,0,0,0],"id":91,"left_children":[1,3,-1,-1,5,-1,-1],"loss_changes":[3.0875056E0,1.410017E0,0E0,0E0,1.6696405E0,0E0,0E0],"parents":[2147483647,0,0,1,1,4,4],"right_children":[2,4,-1,-1,6,-1,-1],"split_conditions":[2.8450066E1,-2.2737311E-2,-1.9189103E-2,2.6846105E-2,5.3502903E1,-1.5190609E-2,1.2179196E-2],"split_indices":[8,2,0,0,3,0,0],"split_type":[0,0,0,0,0,0,0],"sum_hessian":[3.771149E1,2.8894812E1,8.816676E0,8.45236E0,2.0442453E1,6.0842595E0,1.4358193E1],"tree_param":{"num_deleted":"0","num_feature":"9","num_nodes":"7","size_leaf_vector":"1"}},{"base_weights":[-1.6192392E-2,6.351267E-2,-2.0424962E-2,-9.434744E-2,3.195995E-1,-0E0,-1.3659266E-2,-0E0,2.880621E-2,-3.6612388E-3,6.1407667E-3],"categories":[],"categories_nodes":[],"categories_segments":[],"categories_sizes":[],"default_left":[0,0,0,0,0,0,0,0,0,0,0],"id":92,"left_children":[1,3,-1,5,7,9,-1,-1,-1,-1,-1],"loss_changes":[1.5031484E0,1.5741615E0,0E0,3.882588E-1,1.0141926E0,1.654622E-1,0E0,0E0,0E0,0E0,0E0],"parents":[2147483647,0,0,1,1,3,3,4,4,5,5],"right_children":[2,4,-1,6,8,10,-1,-1,-1,-1,-1],"split_conditions":[2.4401734E-2,-2.2680794E-3,-2.0424962E-2,1.4144085E-1,1.8000325E-2,-2.6327857E-1,-1.3659266E-2,-0E0,2.880621E-2,-3.6612388E-3,6.1407667E-3],"split_indices":[0,0,0,4,1,4,0,0,0,0,0],"split_type":[0,0,0,0,0,0,0,0,0,0,0],"sum_hessian":[3.8895836E1,3.266166E1,6.234179E0,1.9779587E1,1.28820715E1,1.3979415E1,5.800171E0,7.2467628E0,5.6353087E0,8.875856E0,5.1035595E0],"tree_param":{"num_deleted":"0","num_feature":"9","num_nodes":"11","size_leaf_vector":"1"}},{"base_weights":[-0E0,2.657665E-1,-1.753067E-1,-4.344297E-3,2.9165579E-2,-2.4801573E-2,2.8928267E-3,1.3332968E-2,-1.0684887E-1,-1.6011817E-2,3.5456808E-3],"categories":[],"categories_nodes":[],"categories_segments":[],"categories_sizes":[],"default_left":[0,0,0,0,0,0,0,0,0,0,0],"id":93,"left_children":[1,3,5,-1,-1,-1,7,-1,9,-1,-1],"loss_changes":[1.9036329E0,2.1060338E0,1.7293298E0,0E0,0E0,0E0,6.472524E-1,0E0,6.4576125E-1,0E0,0E0],"parents":[2147483647,0,0,1,1,2,2,6,6,8,8],"right_children":[2,4,6,-1,-1,-1,8,-1,10,-1,-1],"split_conditions":[-3.6028393E-2,3.8256927E1,-7.5693657E-3,-4.344297E-3,2.9165579E-2,-2.4801573E-2,4.8963018E-2,1.3332968E-2,3.2223135E-1,-1.6011817E-2,3.5456808E-3],"split_indices":[2,3,0,0,0,0,2,0,4,0,0],"split_type":[0,0,0,0,0,0,0,0,0,0,0],"sum_hessian":[3.7578526E1,1.3685036E1,2.3893492E1,6.4263644E0,7.258671E0,8.262065E0,1.5631427E1,5.0911436E0,1.0540283E1,5.339945E0,5.200338E0],"tree_param":{"num_deleted":"0","num_feature":"9","num_nodes":"11","size_leaf_vector":"1"}},{"base_weights":[9.63654E-3,1.9096221E-1,-2.6358461E-2,-2.7907423E-3,2.7108294E-1,4.610763E-1,-0E0,2.8613312E-2,4.3832655E-3,-1.4099682E-2,1.172846E-2],"categories":[],"categories_nodes":[],"categories_segments":[],"categories_sizes":[],"default_left":[0,0,0,0,0,0,0,0,0,0,0],"id":94,"left_children":[1,3,-1,-1,5,7,9,-1,-1,-1,-1],"loss_changes":[4.0487742E0,7.904093E-1,0E0,0E0,1.5224288E0,2.51441E-1,9.648781E-1,0E0,0E0,0E0,0E0],"parents":[2147483647,0,0,1,1,4,4,5,5,6,6],"right_children":[2,4,-1,-1,6,8,10,-1,-1,-1,-1],"split_conditions":[2.8606709E1,-5.420426E-1,-2.6358461E-2,-2.7907423E-3,1.3406101E-1,2.1439228E1,2.0072897E1,2.8613312E-2,4.3832655E-3,-1.4099682E-2,1.172846E-2],"split_indices":[8,4,0,0,4,8,8,0,0,0,0],"split_type":[0,0,0,0,0,0,0,0,0,0,0],"sum_hessian":[3.9254124E1,3.1002022E1,8.252101E0,6.2175884E0,2.4784433E1,1.4419805E1,1.0364629E1,9.258759E0,5.1610456E0,5.123004E0,5.241625E0],"tree_param":{"num_deleted":"0","num_feature":"9","num_nodes":"11","size_leaf_vector":"1"}},{"base_weights":[-3.376583E-2,9.2178404E-2,-2.267746E-1,-1.9200938E-2,4.1190872E-1,-1.8217785E-2,7.9993345E-4,2.8472155E-2,3.875817E-3],"categories":[],"categories_nodes":[],"categories_segments":[],"categories_sizes":[],"default_left":[0,0,0,0,0,0,0,0,0],"id":95,"left_children":[1,3,5,-1,7,-1,-1,-1,-1],"loss_changes":[1.0831426E0,3.9999573E0,7.8598666E-1,0E0,4.3178773E-1,0E0,0E0,0E0,0E0],"parents":[2147483647,0,0,1,1,2,2,4,4],"right_children":[2,4,6,-1,8,-1,-1,-1,-1],"split_conditions":[5.792303E-1,-5.420426E-1,5.6188524E-1,-1.9200938E-2,-2.2064777E-2,-1.8217785E-2,7.9993345E-4,2.8472155E-2,3.875817E-3],"split_indices":[5,4,4,0,2,0,0,0,0],"split_type":[0,0,0,0,0,0,0,0,0],"sum_hessian":[3.8070072E1,2.2102062E1,1.5968012E1,8.08883E0,1.4013231E1,1.0867344E1,5.100668E0,7.5535965E0,6.4596353E0],"tree_param":{"num_deleted":"0","num_feature":"9","num_nodes":"9","size_leaf_vector":"1"}},{"base_weights":[-8.546886E-2,5.013076E-2,-2.5971308E-1,-7.4148024E-3,2.0133682E-1,-4.3868923E-4,-3.9181516E-1,1.6244864E-2,-0E0,-2.9620616E-2,-6.99416E-4],"categories":[],"categories_nodes":[],"categories_segments":[],"categories_sizes":[],"default_left":[0,0,0,0,0,0,0,0,0,0,0],"id":96,"left_children":[1,3,5,-1,7,-1,9,-1,-1,-1,-1],"loss_changes":[1.1804779E0,8.3768547E-1,5.0154746E-1,0E0,2.7648902E-1,0E0,6.3935804E-1,0E0,0E0,0E0,0E0],"parents":[2147483647,0,0,1,1,2,2,4,4,6,6],"right_children":[2,4,6,-1,8,-1,10,-1,-1,-1,-1],"split_conditions":[-3.3390217E-2,-5.420426E-1,3.607844E-2,-7.4148024E-3,2.1530817E1,-4.3868923E-4,4.577805E-1,1.6244864E-2,-0E0,-2.9620616E-2,-6.99416E-4],"split_indices":[4,4,7,0,8,0,4,0,0,0,0],"split_type":[0,0,0,0,0,0,0,0,0,0,0],"sum_hessian":[4.242492E1,2.3045557E1,1.9379362E1,8.553109E0,1.4492448E1,8.724399E0,1.06549635E1,6.9527383E0,7.53971E0,5.3534436E0,5.30152E0],"tree_param":{"num_deleted":"0","num_feature":"9","num_nodes":"11","size_leaf_vector":"1"}},{"base_weights":[1.1554717E-1,-7.587377E-2,2.910484E-1,7.730683E-3,-1.4275509E-2,5.309739E-1,-1.3613877E-2,3.508914E-2,9.8624E-3],"categories":[],"categories_nodes":[],"categories_segments":[],"categories_sizes":[],"default_left":[0,0,0,0,0,0,0,0,0],"id":97,"left_children":[1,3,5,-1,-1,7,-1,-1,-1],"loss_changes":[1.5912359E0,1.1548244E0,3.6798282E0,0E0,0E0,3.1240702E-1,0E0,0E0,0E0],"parents":[2147483647,0,0,1,1,2,2,5,5],"right_children":[2,4,6,-1,-1,8,-1,-1,-1],"split_conditions":[-5.434797E-3,-3.6028393E-2,2.9655913E-2,7.730683E-3,-1.4275509E-2,3.8942832E-2,-1.3613877E-2,3.508914E-2,9.8624E-3],"split_indices":[0,2,0,0,0,2,0,0,0],"split_type":[0,0,0,0,0,0,0,0,0],"sum_hessian":[4.0848618E1,1.8718512E1,2.2130104E1,8.029847E0,1.0688664E1,1.622302E1,5.907083E0,8.280755E0,7.942266E0],"tree_param":{"num_deleted":"0","num_feature":"9","num_nodes":"9","size_leaf_vector":"1"}},{"base_weights":[5.685302E-2,2.0475087E-1,-1.4822729E-2,3.420782E-2,2.817967E-2,1.8681599E-1,-6.655175E-3,-0E0,1.65463E-2],"categories":[],"categories_nodes":[],"categories_segments":[],"categories_sizes":[],"default_left":[0,0,0,0,0,0,0,0,0],"id":98,"left_children":[1,3,-1,5,-1,7,-1,-1,-1],"loss_changes":[2.0340595E0,1.4129003E0,0E0,6.5009135E-1,0E0,3.207069E-1,0E0,0E0,0E0],"parents":[2147483647,0,0,1,1,3,3,5,5],"right_children":[2,4,-1,6,-1,8,-1,-1,-1],"split_conditions":[2.7547312E1,1.0401928E0,-1.4822729E-2,3.6241047E-2,2.817967E-2,-7.42355E-2,-6.655175E-3,-0E0,1.65463E-2],"split_indices":[8,6,0,7,0,4,0,0,0],"split_type":[0,0,0,0,0,0,0,0,0],"sum_hessian":[3.5481037E1,2.6601534E1,8.879503E0,2.0461197E1,6.1403365E0,1.2141744E1,8.319453E0,6.7064233E0,5.4353204E0],"tree_param":{"num_deleted":"0","num_feature":"9","num_nodes":"9","size_leaf_vector":"1"}},{"base_weights":[-4.4838E-2,-2.3359099E-1,2.3885195E-1,1.5883114E-2,-4.745829E-1,-3.6612723E-3,2.2583483E-2,-3.2620504E-3,8.206349E-3,-6.8228752E-3,-3.4475435E-2],"categories":[],"categories_nodes":[],"categories_segments":[],"categories_sizes":[],"default_left":[0,0,0,0,0,0,0,0,0,0,0],"id":99,"left_children":[1,3,5,7,9,-1,-1,-1,-1,-1,-1],"loss_changes":[2.207278E0,1.7835195E0,1.2905532E0,2.3314369E-1,4.2391157E-1,0E0,0E0,0E0,0E0,0E0,0E0],"parents":[2147483647,0,0,1,1,2,2,3,3,4,4],"right_children":[2,4,6,8,10,-1,-1,-1,-1,-1,-1],"split_conditions":[1.0620161E0,8.9082015E-1,-1.4994767E-1,3.1748224E-2,1.3532003E-2,-3.6612723E-3,2.2583483E-2,-3.2620504E-3,8.206349E-3,-6.8228752E-3,-3.4475435E-2],"split_indices":[6,6,2,7,2,0,0,0,0,0,0],"split_type":[0,0,0,0,0,0,0,0,0,0,0],"sum_hessian":[3.7186287E1,2.3599833E1,1.3586456E1,1.1494347E1,1.2105486E1,5.0879173E0,8.498539E0,5.972813E0,5.521534E0,6.879195E0,5.22629E0],"tree_param":{"num_deleted":"0","num_feature":"9","num_nodes":"11","size_leaf_vector":"1"}},{"base_weights":[-0E0,1.1970471E-1,-1.4582649E-2,-9.16672E-3,2.7868897E-1,2.3259496E-2,-2.0139592E-3],"categories":[],"categories_nodes":[],"categories_segments":[],"categories_sizes":[],"default_left":[0,0,0,0,0,0,0],"id":100,"left_children":[1,3,-1,-1,5,-1,-1],"loss_changes":[1.4927859E0,1.5632071E0,0E0,0E0,1.5061299E0,0E0,0E0],"parents":[2147483647,0,0,1,1,4,4],"right_children":[2,4,-1,-1,6,-1,-1],"split_conditions":[6.8830615E-1,-5.48011E-1,-1.4582649E-2,-9.16672E-3,4.0163387E-2,2.3259496E-2,-2.0139592E-3],"split_indices":[5,4,0,0,7,0,0],"split_type":[0,0,0,0,0,0,0],"sum_hessian":[3.7943302E1,2.7335594E1,1.0607706E1,8.218695E0,1.9116901E1,1.2474033E1,6.6428676E0],"tree_param":{"num_deleted":"0","num_feature":"9","num_nodes":"7",